tree
version=v4
num_class=1
num_tree_per_iteration=1
label_index=0
max_feature_idx=36
objective=regression
feature_names=Store Dept Temperature Fuel_Price MarkDown1 MarkDown2 MarkDown3 MarkDown4 MarkDown5 CPI Unemployment Type Size IsHoliday year month weekofyear dayofweek is_month_start is_month_end lag_1 lag_2 lag_3 lag_4 roll_mean_4 roll_std_4 roll_mean_8 roll_std_8 roll_mean_12 roll_std_12 Date_year Date_month Date_week Date_day Date_dow Date_dayofyear Date_ts
feature_infos=[1:45] [1:99] [-2.0600000000000001:100.14] [2.5129999999999999:4.3079999999999998] [0.27000000000000002:88646.759999999995] [-265.75999999999999:104519.53999999999] [-29.100000000000001:141630.60999999999] [0.40999999999999998:67474.850000000006] [135.16:108519.28] [126.06399999999999:226.76307320000001] [4.077:14.313000000000001] -1:0:1:2 [34875:219622] [0:1] [2010:2012] [1:12] [1:52] none [0:1] [0:1] [-4988.9399999999996:649770.18000000005] [-3924:693099.35999999999] [-4988.9399999999996:693099.35999999999] [-4988.9399999999996:649770.18000000005] [-989.50000000007822:304916.96999999997] [0:280433.1534057589] [-498.62875000001816:272127.3725] [0.1765505949811523:200472.32097140781] [-314.67916666666179:226677.90333333335] [0.30547335042703522:173064.82404763839] [2010:2012] [1:12] [1:52] [1:31] none [6:365] [1272585600:1348790400]
tree_sizes=5810 5830 5855 5851 5850 5846 5817 5806 5828 5841 5804 5817 5797 5834 5837 5828 5820 5815 5809 5805 5826 5824 5817 5837 5813 5828 5775 5803 5807 5799 5811 5817 5775 5807 5803 5811 5794 5822 5818 5809 5810 5797 5826 5793 5759 5796 5787 5823 5818 5788 5776 5815 5788 5828 5791 5810 5806 5799 5794 5814 5764 5760 5786 5787 5799 5778 5781 5787 5795 5786 5769 5781 5755 5764 5802 5787 5809 5776 5735 5817 5780 5766 5791 5798 5748 5726 5766 5774 5785 5755 5772 5787 5799 5769 5774 5805 5787 5755 5745 5743 5779 5791 5783 5730 5779 5777 5799 5776 5756 5763 5789 5776 5747 5796 5774 5770 5755 5791 5784 5839 5755 5808 5737 5804 5776 5748 5779 5737 5795 5779 5787 5794 5734 5781 5789 5764 5737 5760 5797 5740 5788 5859 5771 5743 5784 5752 5741 5759 5828 5771 5780 5772 5772 5782 5735 5780 5764 5757 5826 5763 5721 5759 5833 5735 5769 5822 5745 5788 5774 5729 5804 5771 5781 5832 5724 5765 5757 5798 5838 5727 5730 5769 5806 5776 5772 5779 5755 5796 5798 5757 5739 5740 5754 5710 5712 5768 5707 5808 5774 5811 5735 5753 5719 5791 5801 5804 5730 5754 5794 5752 5793 5704 5818 5787 5719 5727 5791 5731 5665 5825 5749 5790 5793 5759 5742 5847 5715 5706 5770 5711 5758 5703 5751 5770 5730 5796 5783 5715 5673 5692 5723 5707 5712 5759 5731 5717 5693 5752 5736 5762 5695 5699 5666 5694 5718 5763 5800 5865 5860 5722 5849 5660 5694 5677 5830 5811 5796 5639 5755 5838 5745 5773 5732 5746 5722 5719 5722 5708 5728 5701 5795 5671 5694 5690 5666 5761 5668 5715 5651 5716 5776 5726 5760 5783 5706 5720 5656 5781 5777 5673 5805 5668 5745 5664 5729 5671 5709 5671 5777 5588 5726 5680 5749 5646 5765 5856 5669 5643 5691 5803 5792 5709 5796 5683 5759 5759 5679 5660 5662 5762

Tree=0
num_leaves=64
num_cat=0
split_feature=20 24 20 24 24 20 20 23 24 24 24 20 20 20 20 20 25 20 16 16 20 36 24 20 24 20 16 16 16 24 20 6 24 16 16 16 20 16 16 15 20 16 16 26 29 20 16 26 20 16 20 29 6 20 21 20 20 20 20 25 16 16 15
split_gain=1.06997e+14 2.14111e+13 1.57551e+13 5.12434e+12 3.31467e+12 2.10315e+12 2.00796e+12 8.9468e+11 5.88803e+11 5.18379e+11 3.93523e+11 3.09685e+11 2.64854e+11 2.38525e+11 2.23022e+11 2.19514e+11 1.77327e+11 1.521e+11 1.30268e+11 1.0884e+11 9.80113e+10 9.46952e+10 8.069e+10 7.56225e+10 7.45025e+10 6.94281e+10 6.7642e+10 5.87455e+10 5.83233e+10 5.82884e+10 5.6199e+10 5.20037e+10 4.70123e+10 4.59606e+10 6.66081e+10 4.49346e+10 4.09272e+10 4.04671e+10 8.44123e+10 9.51063e+10 4.25473e+10 3.98239e+10 4.38858e+10 5.80015e+10 3.73268e+10 3.67819e+10 3.51167e+10 3.3507e+10 3.12413e+10 3.12411e+10 3.04233e+10 2.85345e+10 2.78718e+10 2.75689e+10 2.67258e+10 3.35646e+10 2.67254e+10 2.58708e+10 2.57487e+10 2.50635e+10 2.42749e+10 2.28523e+10 3.59329e+10
threshold=33678.69000000001 73712.969999999958 12230.67 111987.71249999992 49551.278749999961 22384.830000000005 5107.380000000001 139050.45000000004 91500.394999999975 60723.368749999965 39679.343749999956 16863.170000000002 2067.0250000000005 27465.285000000003 8359.345000000003 113576.01000000002 30561.958854365399 68140.47500000002 50.500000000000007 51.500000000000007 55602.985000000008 1293451200.0000002 65093.377499999988 44683.985000000008 84879.782499999943 54013.360000000008 51.500000000000007 51.500000000000007 48.500000000000007 100544.58999999997 139051.58500000005 254.11000000000004 30506.906249999953 51.500000000000007 50.500000000000007 48.500000000000007 19666.490000000002 51.500000000000007 46.500000000000007 11.500000000000002 51004.575000000004 51.500000000000007 46.500000000000007 70347.218124999999 8769.7498343751085 14696.050000000001 51.500000000000007 136276.10062500002 3481.4350000000004 51.500000000000007 10201.500000000002 6795.7348984671407 1785.6950000000004 866.50000000000011 24085.590000000004 38870.790000000008 6560.6250000000009 41602.155000000006 24530.725000000002 5301.9261352371095 50.500000000000007 46.500000000000007 11.500000000000002
decision_type=2 2 2 2 2 2 2 2 2 2 2 2 2 2 2 2 2 2 2 2 2 2 2 2 2 2 2 2 2 2 2 2 2 2 2 2 2 2 2 2 2 2 2 2 2 2 2 2 2 2 2 2 2 2 2 2 2 2 2 2 2 2 2
left_child=2 4 6 8 10 11 12 16 20 25 19 45 53 46 56 -9 47 -10 30 28 -3 -18 -11 -12 41 52 29 35 54 -19 -17 -23 49 34 -25 -27 -13 38 40 -40 -24 42 -22 -44 -37 -4 58 -5 -14 60 -16 -36 57 -1 -2 -56 -8 -6 -7 -30 -15 -34 -63
right_child=1 3 5 7 9 13 14 15 17 22 23 36 48 32 50 18 21 26 -20 -21 24 31 37 33 -26 27 -28 -29 59 -31 -32 -33 61 -35 51 44 -38 -39 39 -41 -42 -43 43 -45 -46 -47 -48 -49 -50 -51 -52 -53 -54 -55 55 -57 -58 -59 -60 -61 -62 62 -64
leaf_value=15671.812811556538 16514.735659350979 16949.978318204401 16073.390691963457 19332.696273527217 16830.973472512454 16375.457183759125 15840.883464616738 18743.877657054723 17284.763746531393 17532.450709527759 16939.286011600638 16216.091747498886 15748.280612130133 16536.563870635797 15945.79554790693 19872.551341279945 19453.930845498293 18544.273726063228 21885.185114023829 16324.42555666644 18006.952389216109 17384.410040224855 16919.902699037546 17094.487949122362 18297.121393607355 17380.754904400364 17688.067240288259 16846.497114937989 16874.54593313342 18855.890673984075 20530.972594470157 18609.197970925539 16631.205916968178 16633.400828676877 17276.365218450661 17506.664339116571 16295.434010001854 17115.147317042924 19358.805582902292 17980.491269533075 17738.346132360268 17328.094348267281 19276.33080862464 18189.169851669765 18205.414305165395 16143.333321115011 16094.042856874281 19819.585957708168 15794.061533315651 16198.758597442338 16003.613983191744 18201.669410570365 17903.229839017469 15708.493065946246 16738.823077116336 16865.325004809125 15891.073571547535 17223.684562491562 16456.586566604019 17251.962088562832 16875.886660035689 17310.950428251348 16704.075616808346
leaf_weight=52341 380 70 15782 1050 164 6549 18565 73 75 2631 6094 13254 27614 6422 17253 193 55 1193 66 492 3431 74 61 4941 1301 4419 66 179 343 1236 870 59 5753 190 61 214 10480 93 58 240 3369 78 57 290 112 11846 305 205 26345 241 15624 70 54 28852 7114 2614 19790 3885 7665 313 196 114 395
leaf_count=52341 380 70 15782 1050 164 6549 18565 73 75 2631 6094 13254 27614 6422 17253 193 55 1193 66 492 3431 74 61 4941 1301 4419 66 179 343 1236 870 59 5753 190 61 214 10480 93 58 240 3369 78 57 290 112 11846 305 205 26345 241 15624 70 54 28852 7114 2614 19790 3885 7665 313 196 114 395
internal_value=16146.4 17448.6 15924.9 18652 17118.6 16285.2 15787 19793.4 18264.4 17456.9 16887 16171.7 15719.1 16496.2 15915.9 20401.2 19284.4 18637.5 20506 16761.2 18080.6 18399.5 17662.5 17011.7 18095.8 17309.8 18677.6 17386.4 16781.1 18703.9 20415 17942.1 16588.9 17095.4 17112.6 17406.6 16251.1 17751.7 17767.3 18258.6 17724 18027.3 18041.5 18376.2 17752.3 16103.4 16412.4 19415.1 15770.6 16534.5 15973.3 17782.6 17217.5 15684.8 16763.2 16772.9 15866.8 17208 16419.2 17056 16546.7 16648.4 16842
internal_weight=333919 48533 285386 10442 38091 79002 206384 2645 7797 15479 22612 51362 135152 27640 71232 1202 1443 2570 1129 11256 5227 188 6452 11356 5157 9027 2495 4924 10764 2429 1063 133 13121 5262 5072 4745 23734 3821 3728 298 3430 3856 3778 347 326 27628 14519 1255 53959 6859 32877 131 4103 81193 10108 9728 38355 4049 14214 656 6618 6262 509
internal_count=333919 48533 285386 10442 38091 79002 206384 2645 7797 15479 22612 51362 135152 27640 71232 1202 1443 2570 1129 11256 5227 188 6452 11356 5157 9027 2495 4924 10764 2429 1063 133 13121 5262 5072 4745 23734 3821 3728 298 3430 3856 3778 347 326 27628 14519 1255 53959 6859 32877 131 4103 81193 10108 9728 38355 4049 14214 656 6618 6262 509
is_linear=0
shrinkage=1


Tree=1
num_leaves=64
num_cat=0
split_feature=20 24 20 24 24 20 20 23 24 24 24 20 20 20 20 20 20 16 20 16 16 20 24 15 24 16 24 20 20 16 16 29 33 24 16 16 20 20 16 16 24 16 20 16 16 13 20 16 20 16 29 20 21 20 29 6 20 20 24 20 16 20 16
split_gain=1.00979e+14 2.0142e+13 1.48192e+13 4.84646e+12 3.12715e+12 1.97904e+12 1.88842e+12 8.34431e+11 5.54853e+11 4.90014e+11 3.72171e+11 2.9438e+11 2.40955e+11 2.22627e+11 2.18708e+11 1.95623e+11 1.73445e+11 1.55683e+11 1.14308e+11 1.1047e+11 1.06496e+11 1.00913e+11 7.30248e+10 7.21414e+10 6.88974e+10 6.56662e+10 6.19025e+10 6.189e+10 5.85716e+10 5.03996e+10 5.07156e+10 7.95734e+10 5.87821e+10 4.33921e+10 4.03512e+10 4.47439e+10 3.93089e+10 3.8606e+10 3.57412e+10 5.28936e+10 3.56671e+10 3.56506e+10 3.49905e+10 3.45397e+10 8.58294e+10 9.50978e+10 3.90773e+10 3.33006e+10 3.26864e+10 3.00604e+10 2.92962e+10 2.91155e+10 2.90434e+10 2.59777e+10 2.48392e+10 2.46659e+10 2.36592e+10 2.36048e+10 2.26924e+10 2.21885e+10 2.20517e+10 2.09289e+10 1.9221e+10
threshold=33678.69000000001 73712.969999999958 12230.67 111987.71249999992 49551.278749999961 22384.830000000005 4835.3850000000011 139050.45000000004 91500.394999999975 60723.368749999965 40575.509999999929 16863.170000000002 8359.345000000003 27465.285000000003 1941.095 139051.58500000005 81229.680000000008 51.500000000000007 62969.42500000001 51.500000000000007 48.500000000000007 57241.735000000008 65093.377499999988 1.5000000000000002 80398.422499999971 48.500000000000007 100544.58999999997 52432.415000000008 44683.985000000008 51.500000000000007 46.500000000000007 8103.6423205435667 22.500000000000004 31144.789999999939 51.500000000000007 50.500000000000007 19366.790000000005 113576.01000000002 51.500000000000007 50.500000000000007 36356.932499999915 49.500000000000007 14469.005000000003 51.500000000000007 46.500000000000007 1.0000000180025095e-35 51004.575000000004 51.500000000000007 6447.8250000000007 51.500000000000007 6048.9209030200027 10201.500000000002 138987.44000000003 3332.5850000000005 6795.7348984671407 1364.1350000000002 24530.725000000002 49617.205000000009 57096.594999999965 735.87500000000011 50.500000000000007 38870.790000000008 51.500000000000007
decision_type=2 2 2 2 2 2 2 2 2 2 2 2 2 2 2 2 2 2 2 2 2 2 2 2 2 2 2 2 2 2 2 2 2 2 2 2 2 2 2 2 2 2 2 2 2 2 2 2 2 2 2 2 2 2 2 2 2 2 2 2 2 2 2
left_child=2 4 6 8 10 11 14 16 21 27 19 42 48 47 59 23 -5 37 -10 25 -17 -3 57 -9 55 40 -20 61 -12 30 58 -32 -33 49 35 -26 -13 -18 39 -30 -2 52 -4 44 46 -46 -24 56 -8 60 -27 -14 -39 -16 -41 -23 -7 -11 -29 -1 -15 -6 -59
right_child=1 3 5 7 9 13 12 15 18 22 28 36 51 33 53 20 17 -19 26 -21 -22 24 43 -25 34 50 -28 29 38 -31 31 32 -34 -35 -36 -37 -38 41 -40 54 -42 -43 -44 -45 45 -47 -48 -49 -50 -51 -52 -53 -54 -55 -56 -57 -58 62 -60 -61 -62 -63 -64
leaf_value=-461.79649533329558 558.07307396220517 841.48223782243406 -74.600419455135594 1294.7987877713715 545.31336864027867 222.34926904091691 -302.52198341354 2508.8501935309332 1070.6973836090606 730.27810146525746 781.27884125042556 63.054775893951536 -194.97344826354671 385.18654876066142 -390.20902810062046 4227.8457012692998 2837.1097019777094 1813.5899603271484 2285.9625371715733 176.12635019840914 5473.6280584490733 1761.6548846641992 743.80224566650384 3693.4238603610434 2002.9090989488168 744.04103572800784 2598.3106177411419 1118.4376307844764 925.19540988444976 694.61750346953852 1242.2967119607997 1547.283506451231 2747.4423046874999 493.83649501385071 1264.2766092427571 2919.0933116319443 140.34644249474451 3122.8629052541883 485.41149414434665 1085.5312651209676 665.41674785803059 4080.8988058035707 -7.0665987299991961 954.23837451171869 1792.1127460140306 3176.1355482219824 1541.4267809889857 -55.459815489387509 -249.77721245937167 64.606726108844455 1139.1903905253507 -138.47349554280143 3585.712949041193 -347.87478676177489 1965.2876313920453 2409.0412310987904 299.91090682149132 1375.0134955950305 1250.5585649012166 -428.83501416957375 711.30735442640866 1032.8425766834155 788.81096345600326
leaf_weight=48335 5837 86 14497 51 85 6573 21245 73 58 58 5002 11872 17235 7351 27545 841 285 83 1258 509 80 2512 59 205 2479 426 1269 3050 4772 186 396 98 65 5352 71 53 11821 760 163 61 5447 62 13184 89 244 57 3363 299 21160 259 293 15704 219 25058 65 61 7722 2525 2113 30144 192 3022 56
leaf_count=48335 5837 86 14497 51 85 6573 21245 73 58 58 5002 11872 17235 7351 27545 841 285 83 1258 509 80 2512 59 205 2479 426 1269 3050 4772 186 396 98 65 5352 71 53 11821 760 163 61 5447 62 13184 89 244 57 3363 299 21160 259 293 15704 219 25058 65 61 7722 2525 2113 30144 192 3022 56
internal_value=0.242482 1265.14 -214.811 2427.88 943.964 134.27 -348.612 3535.06 2052.31 1272.6 718.772 24.0018 -228.923 338.419 -417.405 4124.76 3048.28 3110.79 2413.4 609.42 4341.88 1874.5 1472.49 3392.47 1891.5 627.778 2443.78 1129.42 854.662 1186.94 1202.82 1478.04 2039.71 427.934 2003.02 2023.23 101.622 3190.55 927.02 941.615 609.944 3284.5 -42.4366 1557.61 1571.77 2063.85 1527.9 257.711 -276.209 382.67 906.427 -168.042 3229.95 -370.05 1551.27 1777.93 264.265 1348.99 1172.74 -449.142 393.581 1019.68 1362.61
internal_weight=334095 48547 285548 10506 38041 79122 206426 2659 7847 15466 22575 51374 75344 27748 131082 1199 1460 1409 2585 12512 921 5262 6451 278 5176 12003 2527 9015 10063 5908 5722 559 163 13154 2603 2532 23693 1326 5061 4898 11284 1041 27681 3812 3723 301 3422 14594 42405 7802 719 32939 979 52603 126 2573 14295 2639 5163 78479 7543 3107 2581
internal_count=334095 48547 285548 10506 38041 79122 206426 2659 7847 15466 22575 51374 75344 27748 131082 1199 1460 1409 2585 12512 921 5262 6451 278 5176 12003 2527 9015 10063 5908 5722 559 163 13154 2603 2532 23693 1326 5061 4898 11284 1041 27681 3812 3723 301 3422 14594 42405 7802 719 32939 979 52603 126 2573 14295 2639 5163 78479 7543 3107 2581
is_linear=0
shrinkage=0.03


Tree=2
num_leaves=64
num_cat=0
split_feature=20 24 20 24 24 20 20 28 24 24 24 20 20 20 20 20 16 16 20 20 20 16 20 24 24 20 16 24 16 16 29 33 6 16 16 24 33 16 24 24 20 16 16 16 16 29 33 20 20 29 20 20 20 29 20 16 16 20 24 16 20 27 20
split_gain=9.47444e+13 1.99719e+13 1.29269e+13 4.43893e+12 3.29907e+12 1.6666e+12 1.661e+12 6.84753e+11 5.34723e+11 4.57508e+11 4.31896e+11 2.76625e+11 2.32181e+11 2.19108e+11 2.05931e+11 1.99533e+11 1.61386e+11 2.69474e+11 1.3469e+11 1.08322e+11 1.06808e+11 9.97475e+10 7.02874e+10 6.88198e+10 6.77876e+10 6.53384e+10 5.58233e+10 5.21744e+10 4.55357e+10 5.11324e+10 7.1758e+10 5.45095e+10 3.98008e+10 3.97449e+10 6.04023e+10 3.70635e+10 3.69364e+10 5.14478e+10 3.60413e+10 3.59802e+10 3.46545e+10 3.28337e+10 4.15167e+10 3.27147e+10 8.11767e+10 9.79324e+10 1.17649e+11 3.01846e+10 2.88376e+10 2.70806e+10 2.67921e+10 2.62186e+10 2.59155e+10 2.57493e+10 2.5235e+10 2.46999e+10 2.45448e+10 2.36575e+10 2.33046e+10 2.25558e+10 2.25467e+10 2.02609e+10 1.92925e+10
threshold=32289.320000000003 73712.969999999958 11862.450000000003 111987.71249999992 49551.278749999961 20935.445000000003 4835.3850000000011 135425.06291666671 91500.394999999975 60723.368749999965 39679.343749999956 77314.910000000018 26449.275000000005 16119.170000000002 1881.9750000000001 7967.4550000000008 51.500000000000007 50.500000000000007 62969.42500000001 139051.58500000005 57241.735000000008 51.500000000000007 44683.985000000008 65093.377499999988 84879.782499999943 52432.415000000008 48.500000000000007 100544.58999999997 51.500000000000007 46.500000000000007 8103.6423205435667 22.500000000000004 2658.5750000000003 51.500000000000007 50.500000000000007 28677.823749999912 26.500000000000004 45.500000000000007 35101.620000000003 22534.319999999927 49617.205000000009 51.500000000000007 50.500000000000007 51.500000000000007 46.500000000000007 8424.6425500854984 22.500000000000004 18178.970000000005 9593.2850000000017 6795.7348984671407 13596.940000000001 40671.385000000002 3332.5850000000005 6048.9209030200027 113576.01000000002 51.500000000000007 51.500000000000007 49617.205000000009 57096.594999999965 50.500000000000007 6110.9250000000011 9031.0616122078809 695.21500000000015
decision_type=2 2 2 2 2 2 2 2 2 2 2 2 2 2 2 2 2 2 2 2 2 2 2 2 2 2 2 2 2 2 2 2 2 2 2 2 2 2 2 2 2 2 2 2 2 2 2 2 2 2 2 2 2 2 2 2 2 2 2 2 2 2 2
left_child=2 4 6 8 10 13 14 11 20 25 21 -5 39 50 62 60 17 54 -10 -9 -3 26 -12 57 32 51 38 -20 29 58 -31 -32 41 34 61 55 37 -21 -2 56 -25 42 -22 44 -42 -46 -47 -15 -17 -36 -4 -6 -16 -28 -13 59 -7 -11 -27 -14 -8 -24 -1
right_child=1 3 5 7 9 12 15 19 18 23 22 16 35 47 52 48 -18 -19 27 36 24 -23 33 40 -26 28 53 -29 -30 30 31 -33 -34 -35 49 -37 -38 -39 -40 -41 43 -43 -44 -45 45 46 -48 -49 -50 -51 -52 -53 -54 -55 -56 -57 -58 -59 -60 -61 -62 -63 -64
leaf_value=-448.38586797673315 509.79333872380624 782.79283427144139 -90.575532397879769 1024.5895832027607 584.52141339970592 171.59838938303477 -298.55886319949963 3338.0169557624313 1009.0456370212719 694.55268716430658 743.2357295014325 2728.0438874816891 326.73083749982362 33.673430686762849 -379.2654351594532 -202.95991878956906 1505.9961058407739 4966.3290353260863 2237.197376222437 4049.6646130323475 1756.0721576949179 163.26610475931662 869.4479310300519 749.45648045590042 2030.0418650304525 1084.2683981163889 688.04882367869664 2524.8687034431282 679.37617967605593 1218.919715661337 1487.4560043334961 2635.9577343749997 2578.0389168432202 461.87584691740335 1044.4932193458687 425.95923804624061 3545.9533258928568 4904.4756839923475 612.43903366473648 248.01874968719727 1493.1738173349731 1109.8784850431744 2479.8386629746833 930.97496115695219 1577.412778704354 1776.7349652409957 3812.3808180147057 103.09404823712275 -147.6848651235513 1955.9527503301056 -29.534869342454265 1001.9724128366968 -337.4155613032579 1048.4999020971431 3097.641238498778 19.666273898335245 -102.19288565293098 1320.9014106462487 1217.9265266156071 692.37987724547168 -252.2282969395072 1064.6861404828194 -417.46418740023711
leaf_weight=47034 5918 90 11730 66 147 6523 17147 273 68 59 6218 319 5552 10611 28832 15833 62 68 1266 768 3638 541 4407 56 1292 3044 480 1276 181 386 95 68 58 189 58 7219 160 97 6547 10342 3357 75 78 88 177 58 50 12028 18371 70 14438 2955 25003 296 843 230 308 2558 2110 156 21240 562 30111
leaf_count=47034 5918 90 11730 66 147 6523 17147 273 68 59 6218 319 5552 10611 28832 15833 62 68 1266 768 3638 541 4407 56 1292 3044 480 1276 181 386 95 68 58 189 58 7219 160 97 6547 10342 3357 75 78 88 177 58 50 12028 18371 70 14438 2955 25003 296 843 230 308 2558 2110 156 21240 562 30111
internal_value=0.396851 1188.22 -214.61 2354.84 887.096 110.752 -341.092 3415.1 1995.31 1233.44 676.274 2938.62 285.391 2.22228 -404.888 -225.978 3035.53 3111.34 2347.15 3910.97 1819.34 562.908 812.028 1427.48 1837.33 1095.03 579.223 2382.53 1154.24 1169.19 1448 1979.74 1772.13 892.793 908.678 380.226 4060.16 4151.07 563.751 212.716 1510.35 1759.13 1771.93 1521.57 1535.58 2028.11 2745.49 70.5592 -173.277 1554.25 -56.8992 982.385 -359.835 826.713 2998.61 324.564 159.24 1307.05 1139.21 336.844 -272.931 891.739 -436.322
internal_weight=333880 51172 282708 10497 40675 79137 203571 2656 7841 15389 25286 1358 30330 48807 130980 72591 1292 1230 2610 1298 5231 13782 11504 6403 5141 8986 13241 2542 5884 5703 549 163 3849 5286 5097 13157 1025 865 12465 17173 3786 3791 3716 3730 3642 285 108 22639 34204 128 26168 3102 53835 776 1162 5938 6831 2617 5154 5708 38387 4969 77145
internal_count=333880 51172 282708 10497 40675 79137 203571 2656 7841 15389 25286 1358 30330 48807 130980 72591 1292 1230 2610 1298 5231 13782 11504 6403 5141 8986 13241 2542 5884 5703 549 163 3849 5286 5097 13157 1025 865 12465 17173 3786 3791 3716 3730 3642 285 108 22639 34204 128 26168 3102 53835 776 1162 5938 6831 2617 5154 5708 38387 4969 77145
is_linear=0
shrinkage=0.03


Tree=3
num_leaves=64
num_cat=0
split_feature=20 24 20 24 23 20 20 20 24 24 20 20 20 20 20 20 32 32 35 20 23 35 27 24 20 24 20 32 20 24 32 20 28 32 32 20 32 32 32 32 28 6 29 20 24 20 20 20 6 32 13 25 20 32 24 29 27 33 32 23 32 28 32
split_gain=8.90342e+13 1.65173e+13 1.47395e+13 3.34964e+12 3.08859e+12 1.97376e+12 1.91649e+12 7.60445e+11 5.26301e+11 4.23905e+11 3.0932e+11 2.7261e+11 2.51284e+11 2.17534e+11 2.16103e+11 2.01566e+11 1.89663e+11 1.11648e+11 1.03531e+11 9.7311e+10 9.15765e+10 9.22878e+10 7.83676e+10 7.65196e+10 7.45101e+10 6.39192e+10 5.73256e+10 5.62335e+10 5.43679e+10 4.91676e+10 4.78469e+10 5.02246e+10 4.02557e+10 3.99747e+10 6.0751e+10 3.96809e+10 3.90625e+10 3.67007e+10 3.62685e+10 5.2747e+10 7.20919e+10 3.38024e+10 3.32376e+10 3.04284e+10 2.99677e+10 2.90445e+10 2.83488e+10 2.7674e+10 2.74926e+10 2.74422e+10 3.7993e+10 7.41865e+10 2.7042e+10 2.5761e+10 2.53833e+10 2.29758e+10 2.23436e+10 2.20946e+10 2.12763e+10 2.00238e+10 1.96896e+10 1.91843e+10 1.86648e+10
threshold=35695.69000000001 80398.422499999971 12999.680000000002 53730.447499999958 113520.19500000002 23667.865000000002 5389.2250000000013 139051.58500000005 65093.377499999988 43540.772499999912 92645.810000000012 18178.970000000005 2255.0100000000007 29725.425000000003 9021.0100000000002 74018.345000000016 51.500000000000007 51.500000000000007 343.50000000000006 61008.320000000007 139050.45000000004 322.50000000000006 24473.371716199988 100544.58999999997 113576.01000000002 70641.650000000009 48304.000000000007 48.500000000000007 54013.360000000008 37910.039999999914 51.500000000000007 61008.320000000007 79738.477083333346 51.500000000000007 50.500000000000007 15395.700000000003 51.500000000000007 51.500000000000007 51.500000000000007 46.500000000000007 67016.763750000013 2658.5750000000003 6586.3956556322946 26951.405000000002 20378.623749999952 956.90000000000009 7249.6450000000013 3777.2950000000005 2091.6450000000009 46.500000000000007 1.0000000180025095e-35 4253.7167412922872 10850.885000000002 48.500000000000007 32490.057499999912 6795.7348984671407 12480.995761846098 22.500000000000004 51.500000000000007 139050.45000000004 2.5000000000000004 26612.769583333342 51.500000000000007
decision_type=2 2 2 2 2 2 2 2 2 2 2 2 2 2 2 2 2 2 2 2 2 2 2 2 2 2 2 2 2 2 2 2 2 2 2 2 2 2 2 2 2 2 2 2 2 2 2 2 2 2 2 2 2 2 2 2 2 2 2 2 2 2 2
left_child=2 3 6 9 10 11 12 15 30 17 19 35 45 36 46 -6 18 27 23 -3 -9 -22 -20 -12 -17 62 48 29 -27 -2 31 41 -18 34 -28 -4 43 49 39 -30 -41 56 -29 -7 58 -1 -8 -14 -11 54 -51 -52 -16 -33 -15 -36 -5 -23 -13 -26 -58 -19 -10
right_child=1 4 5 8 7 13 14 20 25 26 16 44 47 37 52 24 32 61 22 -21 21 57 -24 -25 59 28 33 42 38 -31 -32 53 -34 -35 55 -37 -38 -39 -40 40 -42 -43 -44 -45 -46 -47 -48 -49 -50 50 51 -53 -54 -55 -56 -57 60 -59 -60 -61 -62 -63 -64
leaf_value=-432.48932981677689 565.62514684487576 882.00161287307731 -46.759778219146611 1140.4566990115163 1421.5503377696446 262.69531197969002 -265.39954055573543 3343.1389317708331 1436.1062395025492 818.68812376202709 2138.243898151235 100.76715855996108 -356.87497937199714 405.23777884819452 -165.91780025700501 2645.9718585682745 632.06000876978817 20.918074937896506 2540.0056602822583 1893.9694053005539 3946.0869062891115 4178.8061087740389 3996.4166491699216 2496.9246696172877 3043.2749955958943 684.71603469322463 966.75856973638327 751.6841168349074 1610.8654200130418 692.45419583028524 700.81403413288331 1267.5711024551454 1651.7957151144801 506.44526095562674 1183.8012281250001 23.587874903836813 -30.613066700943957 111.20556177261641 930.58750080217635 2871.0433047945203 1770.741967452944 1884.8613909801136 1165.1033222794279 348.42514926623306 164.40040536368207 -395.80430383973925 -215.14841203533223 -313.75528468429263 1508.5499348958333 524.5057875127377 579.06668436253324 1788.138489724864 -110.37169650015338 1650.7068923849588 498.76305648332203 1970.0425289062498 344.84843142095599 5387.6260678917251 -148.60049039984651 3470.7386276424631 980.5609761492974 384.80954922152637 890.92749812199509
leaf_weight=55084 4843 91 14427 4570 83 9031 22474 224 2456 5022 1077 9868 28894 4953 15864 459 56 256 92 2637 798 51 63 1243 611 57 4695 492 3400 6503 192 2437 100 165 74 14437 332 264 69 72 258 54 282 6377 11016 30315 18432 25185 53 804 140 68 15712 181 5630 74 52 70 317 203 338 265 64
leaf_count=55084 4843 91 14427 4570 83 9031 22474 224 2456 5022 1077 9868 28894 4953 15864 459 56 256 92 2637 798 51 63 1243 611 57 4695 492 3400 6503 192 2437 100 165 74 14437 332 264 69 72 258 54 282 6377 11016 30315 18432 25185 53 804 140 68 15712 181 5630 74 52 70 317 203 338 265 64
internal_value=-0.357524 1244.51 -192.844 978.669 2493.38 160.714 -322.391 3364.81 1340.15 752.734 2086.47 48.4226 -387.42 364.403 -197.25 2879.2 2319.93 636.897 2384.16 1860.55 3937.89 4079.07 3153.79 2331.41 2973.05 1542.74 897.882 655.384 1620.85 638.372 1174.88 1186.71 1292.09 970.355 986.052 -11.5742 291.26 461.451 1634.71 1647.48 2018.76 1130.09 903.619 298.197 130.102 -419.472 -242.762 -336.8 826.188 469.415 619.207 981.005 -138.283 1294.68 455.034 1587.51 1121.49 4916.55 92.992 3154.01 896.898 206.389 1422.62
internal_weight=334406 44782 289624 36924 7858 77664 211960 2499 14200 22724 5359 50065 139478 27599 72482 1356 2631 12641 2475 2728 1143 919 155 2320 1273 6376 10083 12120 3856 11346 7824 7632 156 5008 4843 28864 15740 11859 3799 3730 330 5014 774 15408 21201 85399 40906 54079 5075 11595 1012 208 31576 2618 10583 148 4960 121 10185 814 390 521 2520
internal_count=334406 44782 289624 36924 7858 77664 211960 2499 14200 22724 5359 50065 139478 27599 72482 1356 2631 12641 2475 2728 1143 919 155 2320 1273 6376 10083 12120 3856 11346 7824 7632 156 5008 4843 28864 15740 11859 3799 3730 330 5014 774 15408 21201 85399 40906 54079 5075 11595 1012 208 31576 2618 10583 148 4960 121 10185 814 390 521 2520
is_linear=0
shrinkage=0.03


Tree=4
num_leaves=64
num_cat=0
split_feature=20 24 20 24 24 20 20 23 24 24 24 20 20 20 20 20 20 16 20 16 20 16 24 20 24 16 20 16 24 16 16 29 20 20 16 16 24 24 16 16 20 24 20 20 35 26 20 16 16 29 21 20 16 16 29 29 16 16 20 23 20 20 29
split_gain=8.36939e+13 1.76072e+13 1.14627e+13 3.93672e+12 2.93044e+12 1.48876e+12 1.46925e+12 6.97665e+11 4.72737e+11 4.05426e+11 3.82193e+11 2.02071e+11 1.9922e+11 1.93479e+11 1.83105e+11 1.74546e+11 1.66891e+11 1.47651e+11 1.12038e+11 1.01639e+11 8.77706e+10 8.60999e+10 6.38583e+10 6.32288e+10 6.24568e+10 6.0104e+10 5.59996e+10 5.17095e+10 4.56925e+10 4.56855e+10 4.63322e+10 6.32225e+10 4.43579e+10 3.75481e+10 3.70173e+10 5.25615e+10 3.4753e+10 3.38586e+10 3.37751e+10 3.37323e+10 3.27467e+10 3.11479e+10 3.08756e+10 3.05189e+10 2.86374e+10 2.79125e+10 2.5392e+10 2.48563e+10 4.89873e+10 6.96051e+10 2.4437e+10 2.4401e+10 2.43202e+10 3.64211e+10 5.16388e+10 2.39818e+10 2.27343e+10 2.26134e+10 2.25718e+10 2.15594e+10 2.14817e+10 2.04976e+10 2.03387e+10
threshold=32289.320000000003 73712.969999999958 11862.450000000003 111987.71249999992 49551.278749999961 20935.445000000003 4745.1150000000007 139050.45000000004 91500.394999999975 60723.368749999965 39679.343749999956 26449.275000000005 113576.01000000002 15870.265000000001 7967.4550000000008 1824.3850000000002 81229.680000000008 51.500000000000007 68140.47500000002 50.500000000000007 55602.985000000008 51.500000000000007 80398.422499999971 44683.985000000008 67674.951249999969 51.500000000000007 52432.415000000008 48.500000000000007 100544.58999999997 51.500000000000007 46.500000000000007 8103.6423205435667 139051.58500000005 113576.01000000002 51.500000000000007 50.500000000000007 29871.867499999946 35101.620000000003 51.500000000000007 49.500000000000007 55602.985000000008 23338.679999999953 45817.590000000004 18178.970000000005 350.50000000000006 136276.10062500002 9738.8550000000014 51.500000000000007 46.500000000000007 9581.3658891307768 47056.910000000011 38870.790000000008 51.500000000000007 46.500000000000007 8424.6425500854984 6048.9209030200027 51.500000000000007 48.500000000000007 3193.3350000000005 13812.980000000001 6110.9250000000011 13803.440000000002 6795.7348984671407
decision_type=2 2 2 2 2 2 2 2 2 2 2 2 2 2 2 2 2 2 2 2 2 2 2 2 2 2 2 2 2 2 2 2 2 2 2 2 2 2 2 2 2 2 2 2 2 2 2 2 2 2 2 2 2 2 2 2 2 2 2 2 2 2 2
left_child=2 4 6 8 10 13 15 16 20 26 21 41 -9 61 60 -1 -5 33 -10 32 -3 27 -22 -12 42 28 51 37 -20 30 -28 -32 -14 -18 35 -25 59 -2 44 45 -26 56 -11 -15 -24 -35 -16 48 -42 -50 -33 -6 53 -44 -55 -29 -7 -30 -17 -13 -8 -4 -37
right_child=1 3 5 7 9 11 14 12 18 24 23 36 19 43 46 58 17 -19 25 -21 22 -23 38 34 40 -27 29 55 57 -31 31 50 -34 39 -36 62 -38 -39 -40 -41 47 -43 52 -45 -46 -47 -48 -49 49 -51 -52 -53 -54 54 -56 -57 -58 -59 -60 -61 -62 -63 -64
leaf_value=-411.15171181304225 478.0478987193203 716.48465635718367 -82.557424456618833 1136.5544829479015 478.98692930186877 170.51796161490586 -281.89343313205603 2196.9337198974608 1020.0266759835857 546.39367087227947 698.61053229503079 78.333096398674854 3307.7036063878677 28.974346616601014 -189.15517470650536 -359.52285944546651 2574.9719964247879 1583.4202618910845 2125.1142916534955 5064.1161543543194 1614.1136950412272 159.02250336054493 1831.0099939667944 839.65688974591137 824.50624314157585 1298.642812950721 1072.2919554916618 647.19895622973172 2362.616935924088 625.01609248423199 1152.5414658203124 1316.2885886101974 3881.6784779476948 2851.8568201913758 419.03191455737959 1004.8418753310382 416.26314405514137 577.32404603680936 1140.6567630137567 3748.370635653409 1454.9493437621413 242.11098396056971 1257.5805867527361 96.895556320899914 2500.0725769589549 3309.5248874080885 -137.46702895447328 862.26468189057846 1567.8176357736895 2889.5712624289772 2143.6938333272487 942.68582495785222 761.84800240352229 1339.2400230823864 2180.2487707149621 993.29618686185006 -92.527164067538635 2991.4154380580358 -320.56842506660655 327.45290212600173 -237.55527973945073 -28.075884857463222 1795.5550034781677
leaf_weight=75920 5975 81 13086 56 109 8326 18421 74 72 55 6219 327 203 11926 17219 27587 294 84 1210 67 2541 543 2447 4970 75 64 5119 476 1164 192 389 56 845 773 184 58 5384 6529 68 65 2231 8513 3404 11891 66 203 17035 62 123 54 106 3014 86 230 98 302 306 69 26297 7508 21253 11839 72
leaf_count=75920 5975 81 13086 56 109 8326 18421 74 72 55 6219 327 203 11926 17219 27587 294 84 1210 67 2541 543 2447 4970 75 64 5119 476 1164 192 389 56 845 773 184 58 5384 6529 68 65 2231 8513 3404 11891 66 203 17035 62 123 54 106 3014 86 230 98 302 306 69 26297 7508 21253 11839 72
internal_value=-0.0247924 1116.36 -202.027 2215.11 834.518 104.466 -321.033 3210.76 1873.9 1160.83 636.034 269.354 3754.46 1.74408 -214.276 -381.833 2770.23 2833.86 2207.07 3855.76 1708.37 529.649 1723.91 763.836 1343.19 2240.74 1030.44 544.788 2264.88 1085.56 1101.05 1365.75 3773.76 2911.29 840.457 855.576 357.497 529.927 1831.34 3003.72 1460.24 201.378 1265.91 62.8877 1849.57 2950.34 -163.455 1479.2 1494.72 1985.03 1867.51 926.66 1276.13 1287.78 1596.38 782.648 161.184 2400.2 -340.518 317.067 -258.148 -56.6817 1453.14
internal_weight=334015 51177 282838 10446 40731 79106 203732 2664 7782 15403 25328 30364 1189 48742 73928 129804 1475 1419 2579 1115 5203 13825 5122 11503 6418 2507 8985 13282 2443 5862 5670 551 1048 1335 5284 5100 13219 12504 2581 1041 2545 17145 3873 23817 2513 976 34254 2470 2408 177 162 3123 3818 3732 328 778 8632 1233 53884 7835 39674 24925 130
internal_count=334015 51177 282838 10446 40731 79106 203732 2664 7782 15403 25328 30364 1189 48742 73928 129804 1475 1419 2579 1115 5203 13825 5122 11503 6418 2507 8985 13282 2443 5862 5670 551 1048 1335 5284 5100 13219 12504 2581 1041 2545 17145 3873 23817 2513 976 34254 2470 2408 177 162 3123 3818 3732 328 778 8632 1233 53884 7835 39674 24925 130
is_linear=0
shrinkage=0.03


Tree=5
num_leaves=64
num_cat=0
split_feature=20 24 20 24 23 20 20 20 24 24 20 20 20 20 20 20 16 16 23 35 20 16 28 20 24 6 16 16 35 33 22 28 20 6 16 20 24 28 24 6 20 29 16 16 16 25 20 16 20 20 16 20 16 33 25 28 20 15 16 1 29 27 23
split_gain=7.8965e+13 1.46496e+13 1.30511e+13 2.94967e+12 2.78541e+12 1.74824e+12 1.69748e+12 6.95357e+11 4.81665e+11 3.67232e+11 2.69041e+11 2.42925e+11 2.23197e+11 1.93454e+11 1.93447e+11 1.89646e+11 1.63465e+11 9.68808e+10 9.25481e+10 9.30079e+10 8.95848e+10 8.43588e+10 7.92129e+10 6.41813e+10 6.28977e+10 5.93732e+10 5.77479e+10 5.62988e+10 6.6259e+10 7.42022e+10 1.04024e+11 6.39603e+10 5.0178e+10 4.88293e+10 4.27712e+10 4.83929e+10 3.98984e+10 3.95563e+10 3.7204e+10 3.68455e+10 3.49661e+10 3.38489e+10 3.36004e+10 5.40432e+10 3.12139e+10 2.94091e+10 2.83029e+10 2.64934e+10 2.56182e+10 2.49553e+10 2.47956e+10 2.40385e+10 2.304e+10 3.84085e+10 2.60685e+10 2.30089e+10 2.27749e+10 2.19756e+10 2.12098e+10 2.08458e+10 1.96661e+10 1.91616e+10 1.85489e+10
threshold=35695.69000000001 80398.422499999971 12999.680000000002 53730.447499999958 113520.19500000002 23667.865000000002 5389.2250000000013 139051.58500000005 65093.377499999988 43540.772499999912 92645.810000000012 18178.970000000005 2319.9150000000004 29110.285000000003 74018.345000000016 9021.0100000000002 51.500000000000007 51.500000000000007 139050.45000000004 322.50000000000006 59073.935000000005 48.500000000000007 79738.477083333346 113576.01000000002 100544.58999999997 25543.440000000006 48.500000000000007 51.500000000000007 329.50000000000006 23.500000000000004 68244.23000000001 70114.877916666694 48304.000000000007 51547.490000000013 51.500000000000007 59073.935000000005 37910.039999999914 79738.477083333346 31144.789999999939 5611.2850000000008 15395.700000000003 6586.3956556322946 51.500000000000007 50.500000000000007 51.500000000000007 21625.135536051712 956.90000000000009 51.500000000000007 7249.6450000000013 20935.445000000003 51.500000000000007 11009.425000000001 46.500000000000007 22.500000000000004 2982.9801109085161 79738.477083333346 3856.2900000000004 11.500000000000002 48.500000000000007 7.5000000000000009 12972.158978503576 7492.6894409056031 16163.755000000003
decision_type=2 2 2 2 2 2 2 2 2 2 2 2 2 2 2 2 2 2 2 2 2 2 2 2 2 2 2 2 2 2 2 2 2 2 2 2 2 2 2 2 2 2 2 2 2 2 2 2 2 2 2 2 2 2 2 2 2 2 2 2 2 2 2
left_child=2 3 6 9 10 11 12 14 33 17 20 40 46 44 -6 48 21 26 -9 -20 -3 24 -23 -16 55 27 36 28 31 59 -31 45 39 34 35 60 62 -18 50 -11 -4 -28 43 -34 52 -10 -1 49 -8 -13 -15 -17 -7 -54 -55 -12 -14 -56 -37 -30 -5 -45 -2
right_child=1 4 5 8 7 13 15 18 25 32 16 47 56 38 23 51 37 -19 19 -21 -22 22 -24 -25 -26 -27 41 -29 29 30 -32 -33 42 -35 -36 58 -38 -39 -40 -41 -42 -43 -44 61 -46 -47 -48 -49 -50 -51 -52 -53 53 54 57 -57 -58 -59 -60 -61 -62 -63 -64
leaf_value=-407.20331583480015 242.31737535456605 784.69078508048221 -43.817559325860138 1059.6107036791261 1265.7572831726075 261.51126019073871 -249.7669859468582 3121.9226819507494 1322.0144874871828 769.19635336994907 1397.3606453188004 98.674412786181676 -333.81313064672588 377.02283284168578 2499.8282237517528 -154.23991995237469 562.8071402304513 201.23541651785715 3729.4110663630072 4703.8906502757354 1781.5482959661256 3889.2684418402778 2426.9287988281249 2969.884785637315 2339.5979430885036 2494.9692842371323 712.86233691002712 846.32237285053804 2018.0100953851745 3452.6555674913193 1607.7670303344726 1510.3481181808286 907.97155866942978 2041.4805330882352 657.45284063644408 1170.6843300209744 650.36951179249957 1575.7048609116498 465.95770336470463 1586.9497150735294 22.121847439046512 1126.8907439600277 472.50583878737228 1146.5957196514423 -32.717908767551087 741.200503676842 -371.46891343396601 -123.43646145867251 -202.01059547748375 164.99490623830641 66.154583033733672 -101.64546984481333 266.08128243869652 381.68669501762889 1237.847510941117 2048.2724158075998 -294.0918744070504 619.58981246755093 1485.9057640269884 1451.0562083174541 836.92043751980395 1875.9768936820651 547.34742656888386
leaf_weight=55060 189 86 14443 3603 81 12832 22393 221 2050 5072 61 11767 28875 4834 467 17166 55 524 812 118 2632 53 119 811 1232 50 483 142 85 53 63 3552 4719 50 199 3330 6386 101 8122 50 14506 291 155 77 306 86 31580 385 18504 9031 243 14386 765 230 80 1013 23825 157 219 286 422 68 4624
leaf_count=55060 189 86 14443 3603 81 12832 22393 221 2050 5072 61 11767 28875 4834 467 17166 55 524 812 118 2632 53 119 811 1232 50 483 142 85 53 63 3552 4719 50 199 3330 6386 101 8122 50 14506 291 155 77 306 86 31580 385 18504 9031 243 14386 765 230 80 1013 23825 157 219 286 422 68 4624
internal_value=-0.120433 1173.57 -181.313 922.565 2349.1 151.243 -303.321 3174.07 1261.7 709.945 1961.68 45.7146 -364.563 343.13 2709.75 -185.531 2179.05 600.989 3719.48 3857.97 1750.31 2238.63 2897.41 2800.21 2188.26 1455.69 618.466 1447.07 1460.74 1801.93 2473 1431.22 844.141 1103.64 1097.35 1108.82 601.021 1224.45 426.062 777.487 -10.7765 869.777 911.995 925.9 266.932 1298.99 -394.183 122.913 -228.165 127.479 362.16 -130.264 273.453 397.525 611.817 2012.64 -315.862 832.609 1190.55 1586.03 1036.48 1499.16 535.422
internal_weight=334180 44690 289490 36828 7862 77701 211789 2510 14190 22638 5352 50132 139340 27569 1359 72449 2634 12497 1151 930 2718 2478 172 1278 2306 6367 11973 6317 6175 487 116 5688 10141 7823 7773 7574 11199 156 13199 5122 28949 774 5019 4864 14370 2136 86640 21183 40897 20798 5077 31552 14064 1232 467 1074 52700 237 3549 371 4025 145 4813
internal_count=334180 44690 289490 36828 7862 77701 211789 2510 14190 22638 5352 50132 139340 27569 1359 72449 2634 12497 1151 930 2718 2478 172 1278 2306 6367 11973 6317 6175 487 116 5688 10141 7823 7773 7574 11199 156 13199 5122 28949 774 5019 4864 14370 2136 86640 21183 40897 20798 5077 31552 14064 1232 467 1074 52700 237 3549 371 4025 145 4813
is_linear=0
shrinkage=0.03


Tree=6
num_leaves=64
num_cat=0
split_feature=24 24 24 24 24 24 24 28 24 28 24 24 16 24 24 24 16 16 29 25 25 25 15 16 23 22 35 25 24 16 24 24 35 24 24 21 6 21 28 33 15 16 24 35 16 35 27 26 16 16 29 15 25 28 24 23 29 16 29 16 24 24 6
split_gain=7.34527e+13 1.43622e+13 1.1363e+13 3.11067e+12 2.45397e+12 1.5074e+12 1.43738e+12 6.03429e+11 3.57044e+11 3.4042e+11 3.06468e+11 2.0103e+11 1.93249e+11 1.78619e+11 1.73883e+11 1.68627e+11 1.46901e+11 2.28259e+11 1.07074e+11 8.51738e+10 8.28427e+10 7.65836e+10 6.89441e+10 6.80203e+10 6.32469e+10 5.81463e+10 5.52255e+10 5.23241e+10 5.12374e+10 4.98564e+10 4.89415e+10 4.76901e+10 4.72316e+10 4.01374e+10 4.00137e+10 3.84193e+10 3.81588e+10 3.75112e+10 3.50028e+10 3.34887e+10 3.2248e+10 3.20831e+10 2.99413e+10 2.93987e+10 2.82807e+10 4.60804e+10 6.52283e+10 3.0538e+10 2.77666e+10 4.01847e+10 3.77927e+10 5.89539e+10 2.73676e+10 2.6049e+10 2.46083e+10 2.43988e+10 2.42601e+10 2.33536e+10 3.49711e+10 5.07925e+10 2.32641e+10 2.17794e+10 2.16012e+10
threshold=34410.867499999935 76745.729999999996 12494.748749999935 111987.71249999992 53730.447499999958 22534.319999999927 5073.4799999999068 135425.06291666671 43540.772499999912 90746.153333333335 65093.377499999988 16990.449999999986 2.5000000000000004 2114.9324999999403 27603.336249999917 8570.8374999999232 51.500000000000007 50.500000000000007 40665.60722321838 30561.958854365399 21625.135536051712 17204.186486098904 2.5000000000000004 3.5000000000000004 139050.45000000004 92632.080000000002 336.50000000000006 17204.186486098904 84879.782499999943 46.500000000000007 37910.039999999914 100544.58999999997 336.50000000000006 58953.531249999935 46999.934999999961 18747.235000000004 2658.5750000000003 138987.44000000003 84173.075000000026 29.500000000000004 11.500000000000002 48.500000000000007 19776.687499999967 27.500000000000004 51.500000000000007 329.50000000000006 10112.418704501297 70347.218124999999 46.500000000000007 51.500000000000007 3779.8141333833992 11.500000000000002 10738.809127670344 79738.477083333346 31144.789999999939 58985.170000000006 12972.158978503576 46.500000000000007 6393.4530761328106 48.500000000000007 14601.293749999941 10443.852499999944 966.13000000000011
decision_type=2 2 2 2 2 2 2 2 2 2 2 2 2 2 2 2 2 2 2 2 2 2 2 2 2 2 2 2 2 2 2 2 2 2 2 2 2 2 2 2 2 2 2 2 2 2 2 2 2 2 2 2 2 2 2 2 2 2 2 2 2 2 2
left_child=2 4 6 9 8 11 13 12 27 18 21 60 -5 -1 43 -8 17 25 28 36 34 33 -20 -23 -9 -14 -21 30 -3 53 -2 -11 -22 -6 -10 -16 44 -26 -31 41 -29 -25 -13 -7 45 47 -47 -12 52 50 -50 -52 54 -30 -37 -24 -39 -32 -59 -60 -4 -17 -36
right_child=1 3 5 7 10 14 15 24 20 31 19 42 16 -15 35 61 -18 -19 22 26 32 23 55 39 37 -27 -28 40 29 38 57 -33 -34 -35 62 48 -38 56 -40 -41 -42 -43 -44 -45 -46 46 -48 -49 49 -51 51 -53 -54 -55 -56 -57 -58 58 59 -61 -62 -63 -64
leaf_value=-384.28578577882422 513.30748920765768 1586.4720728827622 -59.661133491721657 1321.1208245664222 1006.1469437023879 55.27662026663949 -232.02489348817647 3021.2265881990129 734.48758224471271 1942.4687094061674 1266.0245937428713 58.578613676482185 1617.7272309027776 -313.26330463445953 -40.838495230698349 -164.28237606045366 1279.0897558863023 4428.3796742957747 247.48553253560127 280.87114687120595 186.3757489331563 231.21752468954548 1019.247903604628 868.70108146711573 3109.2135230928307 2691.7127563204285 1398.2195615931919 100.4989946739618 1139.8521607743448 2750.4596881917314 609.01508248085145 2210.8326239800745 938.59820991668698 1148.1679936793148 849.84800756936136 332.53708642576873 2181.4599790482957 3510.401334773936 1789.5462011718748 346.8383769453817 654.21225998274247 1598.3708384486606 126.18490721952851 234.56959612318005 831.11969853827293 1510.8493448004201 2645.941680664062 1427.6094478458485 427.98245610241418 178.69113566715387 1507.209593049934 628.85445425073578 145.40973777309739 1789.8854717700915 417.96699920890705 1886.2395993329892 3919.6801263786761 656.04102385294368 1946.0500885368795 847.51100164994966 -3.3718488458327207 -115.42963601424441 1218.6982332892167
leaf_weight=80903 6312 2603 13175 106 3693 877 41061 265 3804 1398 2148 13255 53 52651 201 17169 67 70 78 110 305 184 78 172 169 1075 62 343 66 89 6858 1232 99 3699 6121 6727 54 516 71 66 130 83 10623 13568 93 237 59 2349 664 282 82 428 504 982 5590 52 356 542 50 163 13257 15774 151
leaf_count=80903 6312 2603 13175 106 3693 877 41061 265 3804 1398 2148 13255 53 52651 201 17169 67 70 78 110 305 184 78 172 169 1075 62 343 66 89 6858 1232 99 3699 6121 6727 54 516 71 66 130 83 10623 13568 93 237 59 2349 664 282 82 428 504 982 5590 52 356 542 50 163 13257 15774 151
internal_value=-0.339882 1096.13 -180.849 2150.71 836.489 124.784 -297.521 3014.49 661.848 1802.54 1170.39 25.5671 2570.26 -356.289 297.359 -191.461 2673.8 2750.67 1627.72 1351.71 795.118 1052.86 957.142 692.81 3478.51 2642.73 689.39 564.795 1664.06 1829.79 575.342 2068.97 372.57 1077.36 812.021 370.841 1374.62 3591.91 2337.82 955.859 253.741 1111.52 88.6598 223.689 1365.26 1375.45 1745.25 1350.73 376.639 501.067 578.285 772.753 362.47 1750.07 371.34 1377.8 3681.79 626.701 786.337 1113.27 -31.4304 -140.895 858.921
internal_weight=334004 47213 286791 9326 37887 79233 207558 2677 24878 6649 13009 50310 1371 133554 28923 74004 1265 1198 4019 5112 10480 7897 208 505 1306 1128 172 14398 3811 1208 13925 2630 404 7392 10076 14478 4940 1041 160 321 473 255 23878 14445 4886 4793 296 4497 14277 1456 1174 510 12821 1048 12317 130 872 7613 755 213 26432 32943 6272
internal_count=334004 47213 286791 9326 37887 79233 207558 2677 24878 6649 13009 50310 1371 133554 28923 74004 1265 1198 4019 5112 10480 7897 208 505 1306 1128 172 14398 3811 1208 13925 2630 404 7392 10076 14478 4940 1041 160 321 473 255 23878 14445 4886 4793 296 4497 14277 1456 1174 510 12821 1048 12317 130 872 7613 755 213 26432 32943 6272
is_linear=0
shrinkage=0.03


Tree=7
num_leaves=64
num_cat=0
split_feature=20 24 20 24 24 20 20 23 24 24 20 20 20 20 20 16 16 20 16 20 20 16 20 29 16 21 20 6 16 16 16 28 16 29 16 24 16 16 29 36 24 29 6 20 20 16 24 20 16 13 25 16 6 1 20 20 16 27 20 20 0 6 1
split_gain=7.00487e+13 1.2831e+13 1.20059e+13 2.96978e+12 2.02845e+12 1.67628e+12 1.50649e+12 4.3534e+11 4.18696e+11 3.79064e+11 2.14229e+11 2.12871e+11 1.99029e+11 1.5376e+11 1.51445e+11 1.38508e+11 1.91926e+11 9.89545e+10 8.86123e+10 7.79453e+10 7.33351e+10 7.08892e+10 6.93246e+10 6.46298e+10 6.4353e+10 6.77017e+10 6.14152e+10 5.64115e+10 5.6267e+10 5.01771e+10 5.75627e+10 4.70804e+10 4.37347e+10 4.33264e+10 4.25756e+10 3.76555e+10 3.76285e+10 4.08256e+10 5.55877e+10 4.25386e+10 3.75167e+10 3.40739e+10 3.35949e+10 3.18073e+10 3.17666e+10 3.05651e+10 2.96818e+10 2.9629e+10 2.89661e+10 3.8044e+10 7.78354e+10 2.64664e+10 2.64445e+10 2.64273e+10 2.34034e+10 2.25092e+10 2.20283e+10 2.18128e+10 2.1243e+10 2.11831e+10 2.06932e+10 3.33504e+10 2.9619e+10
threshold=36414.560000000005 84879.782499999943 12999.680000000002 57096.594999999965 136878.36000000002 23667.865000000002 5585.045000000001 101529.82000000002 44635.137499999924 67674.951249999969 17646.475000000002 2450.3800000000006 30351.145 9021.0100000000002 113576.01000000002 51.500000000000007 50.500000000000007 139051.58500000005 51.500000000000007 62969.42500000001 70992.420000000013 51.500000000000007 51004.575000000004 40665.60722321838 46.500000000000007 101054.05 55602.985000000008 25543.440000000006 48.500000000000007 51.500000000000007 50.500000000000007 76442.884583333347 51.500000000000007 21869.742206374223 50.500000000000007 26584.127499999977 51.500000000000007 46.500000000000007 8103.6423205435667 1322481600.0000002 39679.343749999956 6586.3956556322946 5611.2850000000008 81229.680000000008 92645.810000000012 51.500000000000007 19776.687499999967 1056.8050000000001 46.500000000000007 1.0000000180025095e-35 4136.365204750914 51.500000000000007 25543.440000000006 37.500000000000007 15395.700000000003 61008.320000000007 50.500000000000007 12480.995761846098 4094.9500000000003 11009.425000000001 21.500000000000004 70.915000000000006 94.500000000000014
decision_type=2 2 2 2 2 2 2 2 2 2 2 2 2 2 2 2 2 2 2 2 2 2 2 2 2 2 2 2 2 2 2 2 2 2 2 2 2 2 2 2 2 2 2 2 2 2 2 2 2 2 2 2 2 2 2 2 2 2 2 2 2 2 2
left_child=2 3 6 8 7 10 11 19 18 36 54 47 35 -8 20 16 17 23 28 -3 -9 24 42 -6 44 53 -11 29 40 30 31 -28 34 -16 -24 51 37 55 -39 -40 -2 -30 -10 -32 -21 48 -12 -1 -14 -50 -51 56 -42 -26 -4 57 -7 -5 -13 -15 61 -19 -63
right_child=1 4 5 9 15 12 13 14 22 26 46 58 45 59 33 -17 -18 60 -20 21 -22 -23 32 -25 25 -27 27 -29 41 -31 43 -33 -34 -35 -36 -37 -38 38 39 -41 52 -43 -44 -45 -46 -47 -48 -49 49 50 -52 -53 -54 -55 -56 -57 -58 -59 -60 -61 -62 62 -64
leaf_value=-382.67261712993661 533.78659070715059 794.95808942009421 -41.70823725290915 1061.65595414677 3060.9835473632811 222.36230878648098 -211.80212676118697 1225.9947444233139 767.00817967275418 733.05846204099407 70.087151160608528 -310.11384481585009 416.14031798831621 -144.97455271050387 2604.5911529490572 1791.9605536123422 5249.0658289930561 3408.825336412091 198.43569169592431 1708.8106423065551 2218.0423969790072 1098.0873851344895 925.60975663721035 1844.4846975813241 2603.4598805588944 3089.2493312988281 1366.8130886293552 2446.2069162735847 696.83890799597532 864.31613354226806 1623.7663697350542 1541.1478861014134 491.06992680425225 3561.8576488797171 1464.3262344031025 308.7371460653593 652.72435524799209 1163.0257624876967 2275.4514939283285 1308.3516913551509 637.56717497351133 1109.3769437330595 1540.2582258488583 2652.3738157894736 1940.2783804163569 93.4348407326206 137.64717514194385 -346.39408210033446 486.23005693375046 539.23527755935459 1735.8198454221961 -45.751451598442401 1323.1869881497896 1740.0745976711592 15.148766690235005 1156.9786095824074 541.51724648437494 755.60122466664257 -271.44505598616325 -95.659744902099902 2956.441725463867 4157.6834343749997 3332.072892287234
leaf_weight=57542 5663 67 14451 2440 191 8054 38401 75 6216 112 10397 30205 10563 17181 967 51 53 641 502 1165 1306 114 4793 57 51 79 3395 52 494 137 68 2568 206 52 138 8542 161 380 91 85 5496 293 51 56 1218 247 13401 31519 817 153 72 325 51 130 11864 3048 199 242 22344 14437 95 174 93
leaf_count=57542 5663 67 14451 2440 191 8054 38401 75 6216 112 10397 30205 10563 17181 967 51 53 641 502 1165 1306 114 4793 57 51 79 3395 52 494 137 68 2568 206 52 138 8542 161 380 91 85 5496 293 51 56 1218 247 13401 31519 817 153 72 325 51 130 11864 3048 199 242 22344 14437 95 174 93
internal_value=0.256701 1125.71 -167.441 907.164 2345.76 147.932 -285.295 2076.68 709.46 1275.27 42.9119 -341.578 329.577 -171.461 2374.92 3380.84 3441.56 3360.85 589.423 1822.47 2165.09 1847.14 840.96 2789.92 1879.03 2338.96 1439.33 1451.82 605.765 1443.12 1456 1442.14 923.037 2656.88 940.98 264.123 1112.51 1124.18 1373.38 1818.42 588.429 851.64 773.546 2105.8 1827.88 424.093 108.135 -369.838 431.122 582.448 928.129 219.666 644.108 1996.32 -16.0749 1099.76 230.123 1034.33 -293.677 -122.461 3499.1 3552.56 3883.62
internal_weight=334031 43317 290714 36738 6579 79085 211629 5224 23903 12835 50113 141610 28972 70019 2400 1355 1304 1251 12499 2824 1381 2757 11404 248 2643 260 6388 6276 11997 6224 6087 5963 5137 1019 4931 17120 6447 6286 556 176 11210 787 6267 124 2383 11852 23798 89061 11605 1042 225 8578 5547 181 26315 5730 8253 2682 52549 31618 1003 908 267
internal_count=334031 43317 290714 36738 6579 79085 211629 5224 23903 12835 50113 141610 28972 70019 2400 1355 1304 1251 12499 2824 1381 2757 11404 248 2643 260 6388 6276 11997 6224 6087 5963 5137 1019 4931 17120 6447 6286 556 176 11210 787 6267 124 2383 11852 23798 89061 11605 1042 225 8578 5547 181 26315 5730 8253 2682 52549 31618 1003 908 267
is_linear=0
shrinkage=0.03


Tree=8
num_leaves=64
num_cat=0
split_feature=20 24 20 24 24 20 20 23 24 24 24 20 20 20 20 20 20 16 20 35 16 20 20 15 23 16 24 20 16 16 35 16 16 29 33 20 26 23 16 33 16 16 33 20 20 23 16 33 16 20 21 29 16 33 27 20 13 6 24 20 27 16 16
split_gain=6.59138e+13 1.33035e+13 9.67753e+12 3.20651e+12 2.0382e+12 1.29983e+12 1.23204e+12 5.6181e+11 3.8129e+11 2.88056e+11 2.70773e+11 2.09921e+11 1.63362e+11 1.38489e+11 1.37007e+11 1.25877e+11 1.09739e+11 9.87372e+10 8.56206e+10 8.49467e+10 7.99582e+10 7.08794e+10 5.35741e+10 5.15689e+10 5.03027e+10 4.80159e+10 4.5085e+10 4.45307e+10 3.92974e+10 3.83648e+10 3.63762e+10 3.46204e+10 5.93728e+10 6.34198e+10 9.60447e+10 3.78905e+10 3.10522e+10 2.97779e+10 2.93917e+10 3.69256e+10 2.77703e+10 4.6501e+10 2.73859e+10 2.70202e+10 2.68469e+10 2.66454e+10 2.46639e+10 5.32101e+10 2.41196e+10 2.15177e+10 2.14654e+10 2.12608e+10 2.03994e+10 3.55006e+10 2.19646e+10 2.01809e+10 1.99379e+10 1.97879e+10 1.95132e+10 1.88876e+10 1.77664e+10 1.74913e+10 1.73044e+10
threshold=33678.69000000001 73712.969999999958 12230.67 111987.71249999992 50937.016249999971 22807.540000000005 5107.380000000001 139050.45000000004 91500.394999999975 41538.213749999974 62745.291249999915 17118.775000000005 2067.0250000000005 8618.4450000000015 139051.58500000005 27983.375000000004 86112.99500000001 51.500000000000007 62969.42500000001 322.50000000000006 51.500000000000007 55602.985000000008 38870.790000000008 1.5000000000000002 81058.555000000008 51.500000000000007 57096.594999999965 45817.590000000004 48.500000000000007 51.500000000000007 343.50000000000006 51.500000000000007 46.500000000000007 8424.6425500854984 22.500000000000004 51004.575000000004 136276.10062500002 101529.82000000002 46.500000000000007 23.500000000000004 51.500000000000007 50.500000000000007 22.500000000000004 19666.490000000002 14696.050000000001 13812.980000000001 44.500000000000007 16.500000000000004 51.500000000000007 6903.3450000000003 24509.830000000005 6795.7348984671407 46.500000000000007 22.500000000000004 2654.349319913445 3481.4350000000004 1.0000000180025095e-35 40461.935000000005 67674.951249999969 695.21500000000015 7833.1888458905623 51.500000000000007 51.500000000000007
decision_type=2 2 2 2 2 2 2 2 2 2 2 2 2 2 2 2 2 2 2 2 2 2 2 2 2 2 2 2 2 2 2 2 2 2 2 2 2 2 2 2 2 2 2 2 2 2 2 2 2 2 2 2 2 2 2 2 2 2 2 2 2 2 2
left_child=2 4 6 8 9 11 12 16 21 20 26 44 59 49 23 48 -5 36 -10 -16 22 -3 -2 -9 29 30 62 -11 50 38 37 32 35 -34 -35 -12 46 -20 -23 -40 41 -29 -21 -13 -4 -17 -18 -48 52 -8 -24 -43 -7 -54 -55 -14 -56 -47 -37 -1 -52 -28 -6
right_child=1 3 5 7 10 15 13 14 18 27 31 43 55 -15 19 45 17 -19 25 42 -22 24 28 -25 -26 -27 61 40 -30 -31 -32 -33 33 34 -36 58 -38 -39 39 -41 -42 51 -44 -45 -46 57 47 -49 -50 -51 60 -53 53 54 56 -57 -58 -59 -60 -61 -62 -63 -64
leaf_value=-374.45275067353833 472.17398790919412 592.60411548168622 -58.033183194564501 1147.2112894939555 897.0050198367976 215.41105399000853 -236.51824152863699 2017.9957204367897 810.25331262207021 650.37724107198665 540.81230846929543 56.763361259598803 -312.65756972522638 -131.98725225162059 3405.2479317740681 49.17250915646553 2430.386065471494 1471.5214662039862 1876.5224855486888 3587.010397518382 147.15057854622111 1421.0962216611904 272.21587926864623 2997.4088333834134 1628.2115954742051 1143.4417075617864 1035.3489782481779 774.65833660914564 874.60865668530721 804.23880880634431 2565.2795936802454 727.7633767685636 1285.8072047948474 1326.3459192787727 2847.8555394531245 1148.2119374436907 2936.3652352392146 2105.6749530673915 1510.40105288005 2309.6200837725901 393.16038714306694 924.59732840401784 4793.3946023602548 120.81285356181225 -0.072968199597249678 356.02784194638139 2364.3608011363635 3441.3030891170056 -44.192037656708514 -192.75428142582356 557.89806032673982 1722.158461277174 219.33961115538619 311.99741712655589 530.60228109957905 -275.87760294466614 1081.8140317768298 822.58600897731549 1277.5527539287561 -344.99450936968918 724.00563853900087 590.93991069925232 544.12837501356341
leaf_weight=47014 8365 76 15837 57 4924 12936 22432 76 59 4967 79 11927 27626 30127 804 255 910 81 1318 50 544 2388 209 207 2405 64 3757 4830 423 88 111 130 261 81 74 2272 225 1050 180 82 167 62 70 11791 13176 11549 109 85 302 18489 3584 68 785 200 168 26364 94 82 2277 34025 708 86 134
leaf_count=47014 8365 76 15837 57 4924 12936 22432 76 59 4967 79 11927 27626 30127 804 255 910 81 1318 50 544 2388 209 207 2405 64 3757 4830 423 88 111 130 261 81 74 2272 225 1050 180 82 167 62 70 11791 13176 11549 109 85 302 18489 3584 68 785 200 168 26364 94 82 2277 34025 708 86 134
internal_value=0.214261 1022.67 -173.665 1968.13 761.514 108.41 -281.939 2865.15 1661.11 592.961 1047.99 22.4078 -335.148 -180.81 3347.14 280.37 2466.58 2519.06 1958.68 3529.18 503.96 1512.41 518.555 2742.42 1525.88 1985 947.367 714.867 597.235 1435.44 2006.25 1220.87 1233.43 1580.89 2066.34 1201.86 2581.75 1978.98 1456.08 1768.37 777.204 790.053 4324.53 88.6082 -31.712 352.737 2506.89 2851.44 220.968 -216.75 570.98 1351.74 226.617 342.593 551.092 -294.703 731.727 359.388 1213.22 -362.089 585.461 1025.56 887.766
internal_weight=333676 48497 285179 10495 38002 79102 206077 2674 7821 23927 14075 52731 135029 71048 1207 26371 1467 1410 2602 924 13833 5219 13289 283 5143 2543 8901 10094 4924 2738 2479 5174 5044 416 155 4628 1329 2368 2650 262 5127 4960 120 23718 29013 11886 1104 194 14485 40921 4501 130 14183 1247 462 53990 262 11631 4549 81039 4292 3843 5058
internal_count=333676 48497 285179 10495 38002 79102 206077 2674 7821 23927 14075 52731 135029 71048 1207 26371 1467 1410 2602 924 13833 5219 13289 283 5143 2543 8901 10094 4924 2738 2479 5174 5044 416 155 4628 1329 2368 2650 262 5127 4960 120 23718 29013 11886 1104 194 14485 40921 4501 130 14183 1247 462 53990 262 11631 4549 81039 4292 3843 5058
is_linear=0
shrinkage=0.03


Tree=9
num_leaves=64
num_cat=0
split_feature=20 24 20 24 24 20 20 23 24 24 24 20 20 20 20 20 20 16 20 20 16 16 20 24 16 20 20 35 24 16 16 29 33 20 20 16 33 24 16 24 35 16 16 33 29 6 23 20 16 16 20 20 20 21 27 20 20 16 16 26 20 16 16
split_gain=6.18753e+13 1.30221e+13 8.45668e+12 2.92313e+12 2.13205e+12 1.12596e+12 1.05034e+12 5.08631e+11 3.65504e+11 3.41652e+11 2.31247e+11 1.81742e+11 1.41372e+11 1.34297e+11 1.24655e+11 1.20608e+11 1.1931e+11 9.94979e+10 7.73984e+10 7.0369e+10 6.79576e+10 6.62202e+10 5.85169e+10 5.18117e+10 4.36924e+10 4.35141e+10 4.18066e+10 3.95889e+10 3.92135e+10 3.7316e+10 4.31592e+10 5.82472e+10 4.86479e+10 3.60733e+10 3.41514e+10 3.12274e+10 2.9283e+10 2.79449e+10 2.79391e+10 2.79044e+10 2.71778e+10 2.51254e+10 4.06916e+10 4.5929e+10 6.90443e+10 2.47496e+10 2.34657e+10 2.22599e+10 2.22243e+10 2.19092e+10 2.0397e+10 1.99248e+10 1.87495e+10 1.87389e+10 2.02462e+10 1.87186e+10 1.81995e+10 1.80354e+10 2.24054e+10 4.38222e+10 1.79882e+10 1.74941e+10 1.70184e+10
threshold=32289.320000000003 73712.969999999958 11689.655000000002 111987.71249999992 48280.458749999918 21646.085000000003 4661.1300000000001 139050.45000000004 91500.394999999975 60723.368749999965 39679.343749999956 16119.170000000002 113576.01000000002 7841.1100000000006 1652.345 81229.680000000008 26951.405000000002 51.500000000000007 62969.42500000001 57241.735000000008 51.500000000000007 44.500000000000007 52432.415000000008 84879.782499999943 51.500000000000007 49617.205000000009 38870.790000000008 343.50000000000006 67674.951249999969 51.500000000000007 46.500000000000007 8103.6423205435667 22.500000000000004 43650.200000000004 139051.58500000005 50.500000000000007 22.500000000000004 18548.861249999911 51.500000000000007 100544.58999999997 343.50000000000006 51.500000000000007 46.500000000000007 22.500000000000004 5012.7594134693818 2091.6450000000009 14243.095000000003 139051.58500000005 51.500000000000007 46.500000000000007 41602.155000000006 13596.940000000001 86112.99500000001 23683.345000000005 7833.1888458905623 2912.0050000000006 9890.9200000000019 51.500000000000007 46.500000000000007 64677.329999999994 24530.725000000002 51.500000000000007 51.500000000000007
decision_type=2 2 2 2 2 2 2 2 2 2 2 2 2 2 2 2 2 2 2 2 2 2 2 2 2 2 2 2 2 2 2 2 2 2 2 2 2 2 2 2 2 2 2 2 2 2 2 2 2 2 2 2 2 2 2 2 2 2 2 2 2 2 2
left_child=2 4 6 8 10 11 14 15 19 22 20 51 -9 -8 -1 -5 48 34 -10 -3 26 47 45 38 27 -11 -2 39 62 30 -24 -32 -33 -12 49 53 -23 61 40 -20 -21 42 -35 -44 -45 50 -18 -14 60 -17 -6 -4 -42 -28 -55 -16 -15 58 -30 -60 -7 -13 -27
right_child=1 3 5 7 9 16 13 12 18 25 33 37 21 56 55 17 46 -19 24 23 -22 36 29 -25 -26 28 35 -29 57 -31 31 32 -34 41 -36 -37 -38 -39 -40 -41 52 -43 43 44 -46 -47 -48 -49 -50 -51 -52 -53 -54 54 -56 -57 -58 -59 59 -61 -62 -63 -64
leaf_value=-354.98944796025773 439.97207926338189 638.95826734177615 -74.984954807589958 971.01648469682164 510.42998915907918 165.21239234713454 -224.49114701951555 1884.7774336942036 855.22663324444113 575.19168145370475 587.80901797050581 37.781339834182873 2832.853455844268 -162.11002674818516 -314.01705733114676 2362.1555448733502 60.678032723179562 1376.7053762226103 1809.023386541136 1416.7930343296737 127.60715421152638 3418.6936557112072 917.15975397714067 1647.1462155149045 1093.0089665145872 1108.9367564945071 252.31922134688091 2513.5701721398304 1240.1481005920114 523.31628796250061 979.74209981177137 1209.0385534224076 2221.6216212205763 684.99684346050697 2849.9672201314784 1065.1412266512784 4427.8530404068588 94.631325701029368 864.35895453239891 2030.8684827096865 1571.7891170772427 338.73480355655448 740.68902006213295 763.14847250205594 1929.6378997605848 1436.0467758696932 320.12989894090111 3287.2186893145163 -56.125098773460728 2829.8733931508459 791.98861910246012 -23.824475819378605 2285.512501010237 520.8639981220083 710.28733327823579 -279.29549531854889 -117.82958722186223 725.27039933358469 2350.6773125751201 1296.5749719769021 230.93822844281192 -169.98211054518026 665.51769006063762
leaf_weight=71999 10103 93 13069 54 254 9040 39796 71 64 119 5087 12217 180 19891 26220 965 323 79 1166 3565 545 86 5294 1314 59 3690 184 117 2260 200 385 109 76 4461 245 109 76 12717 84 1173 123 169 297 94 92 52 11592 774 330 132 3842 14402 57 2142 680 30251 14432 61 51 137 6425 375 85
leaf_count=71999 10103 93 13069 54 254 9040 39796 71 64 119 5087 12217 180 19891 26220 965 323 79 1166 3565 545 86 5294 1314 59 3690 184 117 2260 200 385 109 76 4461 245 109 76 12717 84 1173 123 169 297 94 92 52 11592 774 330 132 3842 14402 57 2142 680 30251 14432 61 51 137 6425 375 85
internal_value=-0.192911 961.086 -173.568 1903.96 717.601 86.5695 -276.923 2762.77 1611.11 978.762 536.488 5.26748 3227.62 -186.986 -328.808 2386.75 241.422 2439.83 1904.32 1466.35 456.184 3311.29 870.819 1481.18 1930.66 1150.76 469.721 1950.33 1161.56 930.55 944.348 1194.82 1634.73 644.789 2501.35 566.034 3916.39 63.2643 1423.82 1921.1 1436.13 701.353 713.678 976.613 1347.36 783.293 313.102 3204.55 187.333 2420.96 774.658 -48.1653 1809.18 547.588 566.744 -295.422 -143.495 1255.02 1267.92 1593.45 192.532 31.581 1099.13
internal_weight=334134 51055 283079 10477 40578 80490 202589 2662 7815 16615 23963 52780 1187 74119 128470 1475 27710 1421 2579 5236 13763 1116 10212 5143 2515 6403 13218 2456 6284 6064 5864 570 185 10200 1342 3115 162 25309 3829 2339 3745 5113 4944 483 186 4148 11915 954 15795 1097 4096 27471 180 3006 2822 56471 34323 2509 2448 188 15465 12592 3775
internal_count=334134 51055 283079 10477 40578 80490 202589 2662 7815 16615 23963 52780 1187 74119 128470 1475 27710 1421 2579 5236 13763 1116 10212 5143 2515 6403 13218 2456 6284 6064 5864 570 185 10200 1342 3115 162 25309 3829 2339 3745 5113 4944 483 186 4148 11915 954 15795 1097 4096 27471 180 3006 2822 56471 34323 2509 2448 188 15465 12592 3775
is_linear=0
shrinkage=0.03


Tree=10
num_leaves=64
num_cat=0
split_feature=24 24 24 24 24 24 24 23 28 24 24 24 24 16 1 24 25 24 25 15 16 1 7 25 36 7 16 6 25 25 24 24 24 35 25 35 6 24 1 15 35 10 33 16 25 24 35 24 33 33 24 35 24 21 28 22 24 16 16 29 33 21 33
split_gain=5.75259e+13 1.15304e+13 8.5891e+12 2.80753e+12 1.71417e+12 1.12324e+12 1.08871e+12 4.65385e+11 3.49267e+11 2.48331e+11 2.10351e+11 1.54867e+11 1.51967e+11 1.49159e+11 1.53506e+11 1.31732e+11 1.16713e+11 1.13433e+11 8.75444e+10 1.35984e+11 8.17409e+10 8.19875e+10 7.58716e+10 7.54414e+10 7.12852e+10 6.95799e+10 6.22285e+10 5.45148e+10 5.31122e+10 5.28681e+10 5.00374e+10 3.86588e+10 3.76344e+10 3.72221e+10 3.58607e+10 3.45359e+10 3.25352e+10 3.27961e+10 3.09007e+10 3.07866e+10 2.69509e+10 2.6724e+10 2.63751e+10 4.47951e+10 2.60149e+10 2.59091e+10 2.5875e+10 2.26099e+10 2.21739e+10 5.50484e+10 2.11975e+10 2.11384e+10 2.07779e+10 2.07702e+10 2.0079e+10 1.89091e+10 1.87755e+10 1.86406e+10 3.03983e+10 2.64737e+10 3.70735e+10 2.12084e+10 1.864e+10
threshold=33765.006249999911 73712.969999999958 12299.368749999938 111987.71249999992 50937.016249999971 22115.393749999937 5248.7599999998956 139050.45000000004 90746.153333333335 62745.291249999915 41538.213749999974 16990.449999999986 2357.7962499999567 3.5000000000000004 91.500000000000014 27603.336249999917 30561.958854365399 8317.9762499999579 30561.958854365399 9.5000000000000018 51.500000000000007 17.500000000000004 25.050000000000001 17204.186486098904 1293451200.0000002 294.24000000000007 3.5000000000000004 25543.440000000006 30561.958854365399 21625.135536051712 84879.782499999943 57096.594999999965 100544.58999999997 336.50000000000006 14777.042165673951 336.50000000000006 40461.935000000005 46999.934999999961 22.500000000000004 11.500000000000002 27.500000000000004 8.2660000000000018 29.500000000000004 48.500000000000007 8612.8882658645143 37910.039999999914 27.500000000000004 955.23624999996014 26.500000000000004 25.500000000000004 67674.951249999969 27.500000000000004 14601.293749999941 138987.44000000003 58464.132083333352 61040.515000000007 10134.54624999995 46.500000000000007 51.500000000000007 3638.1807521579954 22.500000000000004 32947.485000000008 12.500000000000002
decision_type=2 2 2 2 2 2 2 2 2 2 2 2 2 2 2 2 2 2 2 2 2 2 2 2 2 2 2 2 2 2 2 2 2 2 2 2 2 2 2 2 2 2 2 2 2 2 2 2 2 2 2 2 2 2 2 2 2 2 2 2 2 2 2
left_child=2 4 6 8 10 11 12 16 18 23 34 52 47 14 -9 46 53 -8 22 -20 21 -21 -3 27 -18 -15 -25 31 48 36 -24 -6 62 -30 45 -31 37 -12 -26 -36 44 -27 43 55 -17 -2 -7 -1 49 50 -11 -13 -4 -5 -50 -28 -19 -42 59 -59 -61 -62 -10
right_child=1 3 5 7 9 15 17 13 32 28 29 51 -14 25 -16 40 24 56 19 20 -22 -23 30 26 38 41 42 -29 33 35 -32 -33 -34 -35 39 -37 -38 -39 -40 -41 57 -43 -44 -45 -46 -47 -48 -49 54 -51 -52 -53 -54 -55 -56 -57 -58 58 -60 60 61 -63 -64
leaf_value=-350.43596332316957 448.50674487318372 2561.3101960227273 -55.313895709217057 2349.7611888096098 835.65408976241167 43.163797543332805 -205.90155294389257 807.19478015019342 1869.4332783054031 1096.5386400742898 620.328450097776 -44.01785514925551 -272.55944602716642 4393.1191957720584 2992.1474280133925 288.81172417882334 2542.1240246803973 -151.72195045596285 187.84724947102865 2686.8336101973682 385.63104266826923 1201.7147555338543 1368.2752332847667 138.21004002218467 627.5065085018382 3074.2304506087903 846.97696622748128 1745.4848713485053 268.82043196651915 145.00704944406706 1598.9367432490083 966.4321674957904 1956.3929641634745 1209.3336776888573 90.267313284795605 830.55747584498204 1316.298185407366 732.81027165520436 1571.5089125504032 584.22916018942124 319.85347423993653 3531.3404356767628 277.81396820068358 1453.77554719002 -54.224556274149151 536.74591766651201 202.92166934592024 -318.68038331606539 430.18906591203478 1967.3943203848378 1237.3412895841652 82.297463082362157 -3.3840590593708071 2704.5495371093748 1045.283601259561 240.54763711680536 -107.28507327676675 369.05663422214673 151.24279233306203 454.58176904330975 768.48228352184015 1446.2480431547617 1623.4176383600434
leaf_weight=53168 7455 54 14436 1037 4848 973 35816 51 523 2079 6341 1262 50085 50 69 516 54 17154 134 56 51 89 3683 214 50 828 151 68 108 289 1163 3644 1235 58 387 85 69 3777 92 160 10979 202 78 92 323 5089 14807 32817 53 80 2043 21427 13344 239 763 68 17108 574 267 301 141 62 861
leaf_count=53168 7455 54 14436 1037 4848 973 35816 51 523 2079 6341 1262 50085 50 69 516 54 17154 134 56 51 89 3683 214 50 828 151 68 108 289 1163 3644 1235 58 387 85 69 3777 92 160 10979 202 78 92 323 5089 14807 32817 53 80 2043 21427 13344 239 763 68 17108 574 267 301 141 62 861
internal_value=-0.251699 954.765 -162.523 1833.64 711.385 102.566 -264.64 2673.77 1547.33 970.11 554.411 17.122 -314.117 3114.8 2077.89 251.551 2312.37 -168.568 1404.98 926.635 1428.21 1789.75 1437 875.968 1614.06 3227.98 550.003 898.863 1136.31 654.071 1423.95 891.879 1830.94 602.707 473.968 302.613 666.944 662.386 1245.83 235.556 321.635 3167.22 775.607 899.165 156.842 484.345 193.074 -338.32 1153.84 1182.32 1166.61 75.27 -30.3706 2418.28 1005.91 660.629 -129.537 332.84 438.531 509.48 668.36 981.559 1717.67
internal_weight=334080 48520 285560 10521 37999 79412 206148 2672 7849 14347 23652 50469 136070 1200 120 28943 1472 70078 5230 330 196 145 4900 9163 196 1080 603 8560 5184 10561 4846 8492 2619 166 13091 374 10187 10118 142 547 13163 1030 389 311 839 12544 15780 85985 5018 4202 4122 22689 27780 1276 816 219 34262 12324 1345 1078 504 203 1384
internal_count=334080 48520 285560 10521 37999 79412 206148 2672 7849 14347 23652 50469 136070 1200 120 28943 1472 70078 5230 330 196 145 4900 9163 196 1080 603 8560 5184 10561 4846 8492 2619 166 13091 374 10187 10118 142 547 13163 1030 389 311 839 12544 15780 85985 5018 4202 4122 22689 27780 1276 816 219 34262 12324 1345 1078 504 203 1384
is_linear=0
shrinkage=0.03


Tree=11
num_leaves=64
num_cat=0
split_feature=20 24 20 24 24 20 20 23 23 24 24 20 20 20 20 20 20 16 1 20 20 16 16 20 15 16 1 20 20 20 20 24 20 16 22 15 35 16 27 33 16 16 16 16 16 33 21 6 23 20 20 26 16 23 10 16 27 16 16 29 20 21 20
split_gain=5.47392e+13 1.14858e+13 7.49669e+12 2.60632e+12 1.89679e+12 1.00645e+12 9.30668e+11 4.64222e+11 3.10196e+11 2.68347e+11 2.42887e+11 1.35281e+11 1.34581e+11 1.28344e+11 1.17321e+11 1.00786e+11 1.00706e+11 9.36662e+10 8.35396e+10 8.27053e+10 6.68003e+10 6.07765e+10 6.06301e+10 6.60111e+10 4.61728e+10 4.52318e+10 6.28475e+10 4.47388e+10 4.28022e+10 3.99631e+10 3.95337e+10 3.67262e+10 3.6598e+10 3.46205e+10 3.44397e+10 3.22134e+10 3.1313e+10 3.08052e+10 3.85705e+10 3.10442e+10 2.80619e+10 3.78218e+10 2.77954e+10 2.72767e+10 3.19445e+10 4.05216e+10 3.77178e+10 2.17859e+10 2.15059e+10 2.08555e+10 2.06376e+10 2.04677e+10 1.97678e+10 1.93916e+10 1.93586e+10 1.84609e+10 1.81308e+10 1.80594e+10 3.27805e+10 4.63755e+10 1.77918e+10 1.7523e+10 1.74896e+10
threshold=32289.320000000003 73712.969999999958 11689.655000000002 111987.71249999992 49551.278749999961 20935.445000000003 4496.0200000000013 139050.45000000004 92876.35000000002 60723.368749999965 39679.343749999956 16119.170000000002 25947.895000000004 7841.1100000000006 139051.58500000005 1593.3200000000002 92645.810000000012 51.500000000000007 91.500000000000014 70992.420000000013 59073.935000000005 51.500000000000007 51.500000000000007 86112.99500000001 1.5000000000000002 48.500000000000007 17.500000000000004 44683.985000000008 45817.590000000004 38870.790000000008 54013.360000000008 67674.951249999969 100912.94500000002 51.500000000000007 138641.38500000004 10.500000000000002 350.50000000000006 46.500000000000007 8212.4718112067058 22.500000000000004 51.500000000000007 50.500000000000007 48.500000000000007 51.500000000000007 46.500000000000007 22.500000000000004 33679.99500000001 2658.5750000000003 65493.080000000009 41602.155000000006 57241.735000000008 80025.81687499999 51.500000000000007 29792.205000000005 8.4095000000000013 51.500000000000007 9031.0616122078809 51.500000000000007 46.500000000000007 8424.6425500854984 18745.525000000005 22033.390000000003 6110.9250000000011
decision_type=2 2 2 2 2 2 2 2 2 2 2 2 2 2 2 2 2 2 2 2 2 2 2 2 2 2 2 2 2 2 2 2 2 2 2 2 2 2 2 2 2 2 2 2 2 2 2 2 2 2 2 2 2 2 2 2 2 2 2 2 2 2 2
left_child=2 4 6 8 10 11 15 16 20 30 21 -4 52 62 24 -1 -5 34 -16 50 -3 29 23 47 -9 51 -27 -12 -11 -2 49 57 -21 37 -18 -36 -34 -32 -39 -40 41 56 61 44 53 -46 -47 -22 -24 -6 -10 -25 -7 -14 -20 60 -29 58 -30 -60 -13 -31 -8
right_child=1 3 5 7 9 12 13 14 19 28 27 55 43 -15 18 -17 17 -19 54 32 22 -23 48 25 -26 26 -28 40 31 42 33 -33 36 -35 35 -37 -38 38 39 -41 -42 -43 -44 -45 45 46 -48 -49 -50 -51 -52 -53 -54 -55 -56 -57 -58 -59 59 -61 -62 -63 -64
leaf_value=-334.60221227369544 414.35274739744585 625.24271490151534 -45.571539885081442 1092.6723424762226 436.51349469546614 161.94781475375956 -231.43031405393859 1786.7388529679581 597.26072683481073 327.27171480964211 562.69257742293883 34.563381707691335 245.16996987710502 -135.16198549427406 4473.7054117359839 -280.48338638692729 2279.0477029049298 1270.3037966136931 3055.7311037899399 1732.20682630444 1334.5186051069177 119.20944325783674 382.44867553710935 1272.609688907399 2723.9859420955881 2972.4503676470586 1532.4718317522322 661.2574928094657 1018.1784847352957 177.69547221074785 879.64806796006746 1186.5902201620725 1941.7828325369132 475.51893695937855 2499.025658233802 3448.7690625 2756.9625310202205 939.82615374755858 1171.6660856885248 2058.7504503213204 324.74823590150811 1208.3760335540771 810.11523730150645 8.8402899050637842 294.18922294953433 547.88355126165573 1383.6172269620029 1969.2013313802083 1101.1042153930664 777.32189354123682 1354.0785126147225 1586.0521322930349 -79.033002921887473 320.06902571449541 3526.2295029362413 -154.40482665228467 844.40163831862719 609.17847750756039 1095.9331041549888 1901.3578587341308 89.177586334225452 524.85981670660067 -192.7182151387814
leaf_weight=70777 10132 104 27570 68 173 15456 22438 73 51 67 6199 13044 7704 34308 50 55169 1064 79 711 1325 3428 543 64 254 203 50 69 4373 3404 139 4259 2488 926 178 190 50 50 319 100 61 193 127 306 318 775 464 54 53 95 3923 102 1236 312 5255 148 377 564 92 222 95 9125 2655 19853
leaf_count=70777 10132 104 27570 68 173 15456 22438 73 51 67 6199 13044 7704 34308 50 55169 1064 79 711 1325 3428 543 64 254 203 50 69 4373 3404 139 4259 2488 926 178 190 50 50 319 100 61 193 127 306 318 775 464 54 53 95 3923 102 1236 312 5255 148 377 564 92 222 95 9125 2655 19853
internal_value=-0.319391 903.81 -163.433 1791.13 675.605 81.5571 -260.747 2606.96 1515.37 938.204 515.492 -0.99974 217.93 -178.284 3049.88 -310.899 2243.39 2299.14 3218.95 1795.55 1386.62 430.538 1401.58 1419.71 2483.44 1580.95 2157.23 617.596 1087.48 443.304 832.628 1095.51 1840.81 890.432 2360.45 2710.38 1986.32 905.913 1136.64 1518.4 682.218 695.775 537.765 283.666 289.797 432.114 637.504 1344.74 816.032 763.037 1107.32 1533.51 157.175 275.565 3140.8 53.5037 682.347 1035.78 1046.16 1342.53 57.0462 507.658 -213.262
internal_weight=334054 51055 282999 10443 40612 80454 202545 2636 7807 15381 25231 50116 30338 76599 1185 125946 1451 1383 909 2454 5353 13775 5249 5090 276 1609 119 11456 6368 13232 9013 6301 2301 4917 1304 240 976 4739 480 161 5257 5064 3100 14570 14252 1293 518 3481 159 4096 153 1490 15768 12959 859 22546 4937 3813 3721 317 22169 2794 42291
internal_count=334054 51055 282999 10443 40612 80454 202545 2636 7807 15381 25231 50116 30338 76599 1185 125946 1451 1383 909 2454 5353 13775 5249 5090 276 1609 119 11456 6368 13232 9013 6301 2301 4917 1304 240 976 4739 480 161 5257 5064 3100 14570 14252 1293 518 3481 159 4096 153 1490 15768 12959 859 22546 4937 3813 3721 317 22169 2794 42291
is_linear=0
shrinkage=0.03


Tree=12
num_leaves=64
num_cat=0
split_feature=20 24 20 24 24 20 20 23 24 24 20 20 20 20 20 20 33 35 16 16 20 20 20 20 29 6 16 20 23 16 6 20 16 24 16 35 28 35 16 16 29 33 20 23 16 16 13 25 1 35 26 21 20 16 16 16 20 29 20 1 0 6 23
split_gain=5.16932e+13 9.35137e+12 8.85506e+12 2.19741e+12 1.46951e+12 1.24162e+12 1.10944e+12 3.30915e+11 3.11843e+11 2.83003e+11 1.59095e+11 1.58041e+11 1.48078e+11 1.13943e+11 1.1207e+11 1.08683e+11 8.88074e+10 1.65392e+11 7.38203e+10 6.34832e+10 6.44965e+10 5.69101e+10 5.22629e+10 5.02516e+10 4.73746e+10 4.64007e+10 4.54063e+10 4.53811e+10 4.29e+10 4.00609e+10 3.87261e+10 3.95581e+10 3.1189e+10 2.85515e+10 2.73578e+10 3.07871e+10 2.64592e+10 3.18032e+10 2.58827e+10 2.86848e+10 3.98985e+10 5.11769e+10 2.51348e+10 2.33328e+10 2.32784e+10 2.49338e+10 3.54317e+10 6.81544e+10 2.27857e+10 2.2649e+10 3.2397e+10 2.24675e+10 2.20669e+10 2.12e+10 2.07203e+10 1.93664e+10 1.92425e+10 1.8895e+10 1.7708e+10 1.74204e+10 1.83616e+10 3.59908e+10 1.6811e+10
threshold=36414.560000000005 84879.782499999943 12999.680000000002 57096.594999999965 136878.36000000002 23667.865000000002 5585.045000000001 101529.82000000002 45831.60749999994 67674.951249999969 18178.970000000005 2579.4550000000004 30351.145 9306.5950000000012 113576.01000000002 113576.01000000002 29.500000000000004 350.50000000000006 51.500000000000007 51.500000000000007 92645.810000000012 70992.420000000013 41602.155000000006 55602.985000000008 21869.742206374223 25543.440000000006 48.500000000000007 62969.42500000001 77300.290000000023 48.500000000000007 25543.440000000006 52432.415000000008 51.500000000000007 26584.127499999977 51.500000000000007 350.50000000000006 79738.477083333346 322.50000000000006 51.500000000000007 46.500000000000007 8103.6423205435667 22.500000000000004 1109.2150000000004 139050.45000000004 51.500000000000007 46.500000000000007 1.0000000180025095e-35 4136.365204750914 37.500000000000007 329.50000000000006 67265.511874999982 23683.345000000005 15395.700000000003 51.500000000000007 50.500000000000007 51.500000000000007 45817.590000000004 6586.3956556322946 7249.6450000000013 94.500000000000014 26.500000000000004 70.915000000000006 25996.755000000005
decision_type=2 2 2 2 2 2 2 2 2 2 2 2 2 2 2 2 2 2 2 2 2 2 2 2 2 2 2 2 2 2 2 2 2 2 2 2 2 2 2 2 2 2 2 2 2 2 2 2 2 2 2 2 2 2 2 2 2 2 2 2 2 2 2
left_child=2 3 6 8 7 10 11 19 18 38 52 42 33 58 -6 21 17 43 22 20 27 -9 -2 -11 -17 28 36 -3 32 51 31 -10 49 53 35 -33 -22 -38 39 56 -41 -42 -1 -16 45 -14 -47 -48 -21 -25 -51 -24 -4 54 -7 -12 -5 -31 -8 60 61 -45 -20
right_child=1 4 5 9 14 12 13 15 30 23 55 -13 44 -15 16 24 -18 -19 62 48 26 -23 29 25 -26 -27 -28 -29 -30 57 -32 34 -34 -35 -36 -37 37 -39 -40 40 41 -43 -44 59 -46 46 47 -49 -50 50 -52 -53 -54 -55 -56 -57 -58 -59 -60 -61 -62 -63 -64
leaf_value=-328.63540508632587 478.21769770931019 658.155070397994 -35.29861597939643 429.40507466933303 1573.2463682250977 190.51796511786418 -199.8012438553389 1026.260976760452 683.45283774767586 609.85700994247043 102.87525791429029 -250.54962409359987 357.59511712568985 -101.46875912614094 2577.1906612424796 2228.725543467679 2037.0107425362723 4679.2695468749998 15.766506028928255 399.02812400124293 981.81627636249243 1909.6572361511046 185.99826710440897 1169.8188704630199 3222.510880055147 2165.5053165211393 2399.1550825832196 1473.9978156548041 1341.1994392338224 669.45622657569675 1407.685239445613 804.18568082650631 682.6894003139397 265.9950382547355 438.03758622287364 1216.6995609374999 1675.4981528320313 2424.8598305084743 569.22412752835248 992.1355281377032 1093.8562165076987 2146.3800080951892 -295.83500589736212 3012.0452334449405 73.691062748991399 419.11556595542214 470.38660791345546 1586.964432421875 1246.4901736450195 1951.9092941810343 1237.4954680423461 585.5071443629115 17.042058214857185 -44.366131769671902 504.59592529926095 -114.70825447128296 949.98961660330303 1067.3050916602854 -160.32464359184044 2787.62250712386 2604.5059908088238 3622.5505106707315 347.07818293557233
leaf_weight=58884 7381 67 14474 67 59 8061 19831 73 6135 116 20833 49956 10539 28691 186 962 97 54 284 54 51 1323 131 3486 50 50 91 1231 2417 221 77 3566 116 8506 177 174 1179 58 158 368 102 75 32929 377 242 791 147 74 63 86 206 5258 14522 338 193 374 5643 226 21202 328 84 163 267
leaf_count=58884 7381 67 14474 67 59 8061 19831 73 6135 116 20833 49956 10539 28691 186 962 97 54 284 54 51 1323 131 3486 50 50 91 1231 2417 221 77 3566 116 8506 177 174 1179 58 158 368 102 75 32929 377 242 791 147 74 63 86 206 5258 14522 338 193 374 5643 226 21202 328 84 163 267
internal_value=0.104164 966.639 -144.044 780.646 2010.96 126.759 -245.319 1781.53 610.312 1096.36 36.5876 -293.505 283.441 -147.338 2894.35 2040.24 2953.55 3026.37 517.274 1557.92 1588 1864.23 531.46 1236.47 2280.96 1247.79 1733.28 1432.42 1240.18 598.703 736.712 731.432 1177.15 227.009 806.387 823.698 1684.41 1712.56 954.683 964.327 1175.62 1549.39 -316.875 2943.9 365.231 371.332 513.898 849.728 862.05 1192.15 1453.85 575.832 -9.08527 188.387 197.922 99.0328 943.957 872.539 -179.408 3012.76 3126.46 3202.68 176.649
internal_weight=333924 43337 290587 36787 6550 79094 211493 5202 23897 12890 50203 141769 28891 69724 1348 2408 1289 1192 13768 2794 2677 1396 13217 6477 1012 6361 1379 1298 6311 5836 10129 10052 3894 17098 3917 3740 1288 1237 6413 6255 545 177 91813 1138 11793 11551 1012 221 117 3778 292 5389 28996 8592 8254 21207 5710 447 41033 952 624 540 551
internal_count=333924 43337 290587 36787 6550 79094 211493 5202 23897 12890 50203 141769 28891 69724 1348 2408 1289 1192 13768 2794 2677 1396 13217 6477 1012 6361 1379 1298 6311 5836 10129 10052 3894 17098 3917 3740 1288 1237 6413 6255 545 177 91813 1138 11793 11551 1012 221 117 3778 292 5389 28996 8592 8254 21207 5710 447 41033 952 624 540 551
is_linear=0
shrinkage=0.03


Tree=13
num_leaves=64
num_cat=0
split_feature=20 24 20 24 24 20 20 24 24 24 24 20 20 16 35 20 20 20 20 20 16 20 6 16 33 16 16 24 20 35 20 20 16 16 16 16 21 24 16 29 16 16 1 20 21 27 16 6 16 16 20 6 24 16 33 29 20 20 21 29 0 1 6
split_gain=4.86845e+13 9.72538e+12 7.15411e+12 2.32731e+12 1.49795e+12 9.58053e+11 9.1205e+11 3.64145e+11 2.76616e+11 2.14396e+11 1.92931e+11 1.55101e+11 1.2579e+11 1.35897e+11 1.72084e+11 1.16787e+11 1.05902e+11 1.00546e+11 9.66488e+10 7.09922e+10 6.15417e+10 5.65631e+10 5.44943e+10 4.14777e+10 4.05098e+10 3.95112e+10 4.47497e+10 3.71062e+10 3.60785e+10 3.53102e+10 3.33185e+10 3.32493e+10 3.27818e+10 2.98899e+10 2.62629e+10 4.55012e+10 6.47783e+10 2.58271e+10 2.54135e+10 2.63491e+10 2.38773e+10 3.86406e+10 2.24588e+10 2.23183e+10 2.21818e+10 2.20669e+10 2.20568e+10 1.89617e+10 1.87694e+10 1.86647e+10 1.86114e+10 1.85276e+10 1.82345e+10 1.70985e+10 3.10375e+10 2.02955e+10 1.70377e+10 1.69077e+10 1.68602e+10 1.6757e+10 1.66652e+10 2.63255e+10 3.44662e+10
threshold=33678.69000000001 73712.969999999958 12230.67 111987.71249999992 50937.016249999971 22807.540000000005 4835.3850000000011 136878.36000000002 91500.394999999975 41538.213749999974 62745.291249999915 17385.735000000004 113576.01000000002 51.500000000000007 350.50000000000006 8224.0250000000033 1764.7850000000001 77314.910000000018 27983.375000000004 62969.42500000001 51.500000000000007 57241.735000000008 51547.490000000013 48.500000000000007 28.500000000000004 51.500000000000007 50.500000000000007 84879.782499999943 55602.985000000008 350.50000000000006 49617.205000000009 47013.755000000012 51.500000000000007 51.500000000000007 51.500000000000007 46.500000000000007 73940.425000000017 37115.88624999996 48.500000000000007 21869.742206374223 51.500000000000007 50.500000000000007 7.5000000000000009 14696.050000000001 18747.235000000004 5742.1650618926524 50.500000000000007 40461.935000000005 51.500000000000007 51.500000000000007 68140.47500000002 2091.6450000000009 100544.58999999997 46.500000000000007 22.500000000000004 2767.2099325375148 19666.490000000002 10359.755000000003 23259.300000000007 14020.511187910914 21.500000000000004 94.500000000000014 70.915000000000006
decision_type=2 2 2 2 2 2 2 2 2 2 2 2 2 2 2 2 2 2 2 2 2 2 2 2 2 2 2 2 2 2 2 2 2 2 2 2 2 2 2 2 2 2 2 2 2 2 2 2 2 2 2 2 2 2 2 2 2 2 2 2 2 2 2
left_child=2 4 6 8 9 11 16 17 21 20 22 43 -9 14 60 -8 -1 -5 49 -10 23 -3 28 37 29 26 27 51 59 -19 -12 -11 38 46 35 50 42 58 39 52 41 -33 -37 -4 -20 -25 -30 -46 56 53 -32 -23 -21 -7 -55 -56 -13 -17 -2 -6 61 62 -14
right_child=1 3 5 7 10 18 15 12 19 31 30 48 13 -15 -16 57 -18 24 44 32 -22 25 -24 45 -26 -27 -28 -29 33 -31 34 40 -34 -35 -36 36 -38 -39 -40 -41 -42 -43 -44 -45 47 -47 -48 -49 -50 -51 -52 -53 -54 54 55 -57 -58 -59 -60 -61 -62 -63 -64
leaf_value=-313.50374427832236 175.25293384970402 523.05909403956218 -49.407099784484529 776.1060611267809 763.69472467789114 183.82211108344268 -193.06690817403532 1461.1659268517126 701.50178268881405 570.03988046105781 435.61299006020153 55.157076976638045 2861.5187594023519 1363.5020272391184 4517.7699167520495 -135.9028772853427 -259.01118820507668 2157.6511308937543 21.470170612568754 1627.2023516799811 120.08136958074745 1253.1729459714377 1800.372456629136 521.89032326084794 1621.716058515661 758.17307349196994 1956.4144822322512 1457.4361109662523 869.57833230895926 2948.6489119203625 980.72893138670872 679.18397947412871 990.47304317351302 478.92253424783769 620.10072497870976 1637.398704633109 2154.7831015748611 481.18178108386689 2139.05169140625 1294.4267276595474 319.99301971152971 1241.0305475543478 1038.8198301355696 2.1915464127422069 307.14738704592128 844.39819708746825 1291.2912569959624 743.12991424225186 -126.5504531986695 -45.662577066899942 1106.3184736037772 1850.0943868314303 1816.0935336782093 184.8602637717573 275.20761225310849 674.56159912827434 108.11364153976267 -93.114560926909448 404.22571559711002 552.70634543939968 2465.0309745558643 2667.3248661534926 3412.6911888860882
leaf_weight=74571 305 85 15763 52 3703 12946 41023 64 67 6000 81 10336 456 55 60 19843 56440 1050 244 1063 541 3632 50 470 135 118 102 1223 4570 61 2434 3890 61 177 126 78 78 5609 139 153 161 114 254 14469 11537 332 118 90 390 298 2109 51 1109 789 212 254 11618 14323 6572 387 145 407 185
leaf_count=74571 305 85 15763 52 3703 12946 41023 64 67 6000 81 10336 456 55 60 19843 56440 1050 244 1063 541 3632 50 470 135 118 102 1223 4570 61 2434 3890 61 177 126 78 78 5609 139 153 161 114 254 14469 11537 332 118 90 390 298 2109 51 1109 789 212 254 11618 14323 6572 387 145 407 185
internal_value=0.376701 877.691 -149.253 1687.46 655.406 93.5998 -242.232 2452.17 1425.52 510.947 900.05 19.5848 2795.01 2859.11 2923.62 -158.944 -290.03 2087.91 241.163 1679.57 433.992 1298.85 815.984 446.763 2141.99 1311.61 1324.49 1310.96 810.287 2203.69 1046.57 615.588 1705.24 865.959 1056.23 1067.2 1373.43 433.253 1722.52 1696.71 681.052 695.486 1183.94 -24.7128 304.646 656.283 880.466 310.586 79.5189 189.17 1039.26 1261.94 1724.44 194.101 299.898 493.86 83.1852 -117.968 394.098 743.871 2839.73 2889.17 3025.66
internal_weight=333778 48632 285146 10473 38159 78946 206200 2670 7803 23994 14165 52576 1372 1308 1253 75189 131011 1298 26370 2592 13829 5211 9005 13288 1246 5126 5008 4906 8955 1111 5160 10165 2525 4865 5079 4953 410 12486 2464 2325 4165 4004 332 30232 11871 802 4688 11627 22344 14499 4543 3683 2172 14201 1255 466 21954 34166 6877 4090 1193 1048 641
internal_count=333778 48632 285146 10473 38159 78946 206200 2670 7803 23994 14165 52576 1372 1308 1253 75189 131011 1298 26370 2592 13829 5211 9005 13288 1246 5126 5008 4906 8955 1111 5160 10165 2525 4865 5079 4953 410 12486 2464 2325 4165 4004 332 30232 11871 802 4688 11627 22344 14499 4543 3683 2172 14201 1255 466 21954 34166 6877 4090 1193 1048 641
is_linear=0
shrinkage=0.03


Tree=14
num_leaves=64
num_cat=0
split_feature=20 26 20 20 20 20 20 23 23 26 20 20 20 16 25 20 20 16 20 16 20 16 1 6 20 6 16 35 26 21 16 33 20 23 28 20 21 27 16 20 16 16 33 29 16 33 27 13 6 29 20 21 16 27 16 33 26 26 33 23 20 33 21
split_gain=4.57413e+13 8.20154e+12 7.84622e+12 1.87309e+12 1.32947e+12 1.06567e+12 1.02048e+12 4.16179e+11 3.66784e+11 2.18173e+11 1.52009e+11 1.45631e+11 1.34939e+11 1.32905e+11 1.29349e+11 1.18811e+11 9.82353e+10 9.31058e+10 7.89389e+10 7.79e+10 7.78807e+10 7.63119e+10 7.80461e+10 5.52964e+10 5.41629e+10 4.83348e+10 4.76393e+10 4.30804e+10 3.82927e+10 3.7359e+10 3.87306e+10 5.07706e+10 3.51761e+10 3.36016e+10 3.20956e+10 2.88786e+10 2.82279e+10 2.71031e+10 2.57263e+10 2.27176e+10 2.15168e+10 2.47951e+10 3.28812e+10 4.69071e+10 2.093e+10 3.26344e+10 2.53812e+10 2.90674e+10 2.08921e+10 2.08666e+10 2.0751e+10 2.03451e+10 1.74044e+10 1.71533e+10 1.64772e+10 2.09807e+10 1.63586e+10 1.59065e+10 1.57819e+10 1.54339e+10 1.49156e+10 1.48082e+10 1.47491e+10
threshold=36414.560000000005 84309.693125000005 13203.220000000003 55602.985000000008 113576.01000000002 24085.040000000005 5783.3600000000015 139050.45000000004 65493.080000000009 45521.876249999994 2579.4550000000004 18465.270000000004 92645.810000000012 51.500000000000007 21625.135536051712 30351.145 9306.5950000000012 51.500000000000007 70992.420000000013 50.500000000000007 74018.345000000016 48.500000000000007 7.5000000000000009 25543.440000000006 74018.345000000016 25543.440000000006 51.500000000000007 343.50000000000006 58728.364999999998 113195.27500000001 46.500000000000007 16.500000000000004 74018.345000000016 101529.82000000002 51820.082083333335 41602.155000000006 138987.44000000003 12480.995761846098 51.500000000000007 912.0150000000001 51.500000000000007 46.500000000000007 25.500000000000004 3638.1807521579954 46.500000000000007 22.500000000000004 3578.0728155171378 1.0000000180025095e-35 2091.6450000000009 12972.158978503576 15870.265000000001 31626.755000000001 51.500000000000007 6083.1537519060084 46.500000000000007 22.500000000000004 26120.386250000003 136276.10062500002 11.500000000000002 32969.965000000004 4094.9500000000003 11.500000000000002 21655.375000000004
decision_type=2 2 2 2 2 2 2 2 2 2 2 2 2 2 2 2 2 2 2 2 2 2 2 2 2 2 2 2 2 2 2 2 2 2 2 2 2 2 2 2 2 2 2 2 2 2 2 2 2 2 2 2 2 2 2 2 2 2 2 2 2 2 2
left_child=2 3 6 9 12 11 10 17 13 23 39 50 18 21 24 38 -8 29 -3 36 -16 28 32 26 48 34 27 35 51 -6 57 -32 -23 -14 -11 -2 -9 -15 44 -1 41 59 -43 -44 56 -46 -47 -48 -10 -38 -4 -5 54 -29 -13 -56 -7 -31 -20 -17 -12 -36 -37
right_child=1 4 5 8 7 15 16 19 14 25 60 52 33 37 20 40 -18 -19 58 -21 -22 22 -24 -25 -26 -27 -28 53 -30 30 31 -33 -34 -35 61 62 49 -39 -40 -41 -42 42 43 -45 45 46 47 -49 -50 -51 -52 -53 -54 -55 55 -57 -58 -59 -60 -61 -62 -63 -64
leaf_value=-310.87311386425955 435.4272292285022 768.08124494693152 -27.025350593640002 382.30813211059569 1869.5359304424894 173.00898484019069 -166.09640099089779 2439.3534478561046 1054.2720145678093 622.05640522960618 -249.46442744481914 95.31584435355019 1590.1740671479431 652.35097657489291 1275.5086821432674 298.60905269469328 -93.746938796097609 1191.0275231728187 1540.2954271917597 3915.4545829634235 2923.0271660156245 1422.2000328947368 1000.2480851757813 1200.0408950396666 1235.4171637321003 1454.2790993245444 173.13165195703505 571.6854832189224 927.92939689214029 2087.9449046696573 2116.0895131138391 3519.061614091981 2396.6268554687499 1832.1659604275974 809.68937552832449 102.68094139621682 2735.8145623224432 197.50283138761586 -29.968991153104149 -280.53620356697212 67.742974838447566 429.65389829424169 430.95446968647968 1651.5547999482997 218.55193814883063 337.32573296531092 542.21939085443341 1298.7414036677433 1672.0118742629718 3102.2188054184239 23.889461860523056 796.09802430530306 -103.55766421594927 859.73890941966658 108.46313926477302 319.22599107237426 239.27852741159771 2450.3213755139805 1336.0480949707032 371.46597477473819 -217.38305136516493 685.72391176191786 536.75766618940224
leaf_weight=53578 6808 189 15697 114 356 5541 38606 214 3625 5306 27573 18957 1184 196 50 5107 30037 103 673 65 59 94 374 96 3135 71 443 407 3577 612 55 52 59 1083 1556 72 527 297 367 38234 249 892 66 50 826 300 165 64 52 325 13314 2819 371 362 1094 696 8551 189 919 5455 24942 2147 4966
leaf_count=53578 6808 189 15697 114 356 5541 38606 214 3625 5306 27573 18957 1184 196 50 5107 30037 103 673 65 59 94 374 96 3135 71 443 407 3577 612 55 52 59 1083 1556 72 527 297 367 38234 249 892 66 50 826 300 165 64 52 325 13314 2819 371 362 1094 696 8551 189 919 5455 24942 2147 4966
internal_value=-0.103297 910.375 -135.491 735.789 1888.52 122.425 -229.665 2433.17 1001.7 562.923 -274.954 39.9678 1551.91 856.521 1159.51 272.003 -134.439 2077.32 1354.24 2861.06 2185.75 889.897 1238.64 484.759 1142.77 676.091 479.409 490.15 861.48 2148.54 2255.76 2824.18 1811.08 1706.54 669.797 475.934 2793.15 379.289 218.198 -298.243 343.971 349.909 492.353 966.694 224.096 336.802 520.682 758.377 1063.46 2879.05 -3.65903 780.151 99.8978 708.225 103.541 190.546 213.235 2176.4 1423.3 336.269 -234.232 738.019 530.576
internal_weight=333963 43231 290732 36685 6546 77762 212970 2498 14451 22234 144327 50129 4048 7530 6921 27633 68643 1367 1781 1131 109 7037 527 13154 6812 9080 13058 12615 6510 1264 908 107 153 2267 9009 11846 1066 493 15814 91812 11819 11570 1008 116 15447 1355 529 229 3677 852 29011 2933 21118 769 20747 1790 14092 801 1592 10562 52515 3703 5038
internal_count=333963 43231 290732 36685 6546 77762 212970 2498 14451 22234 144327 50129 4048 7530 6921 27633 68643 1367 1781 1131 109 7037 527 13154 6812 9080 13058 12615 6510 1264 908 107 153 2267 9009 11846 1066 493 15814 91812 11819 11570 1008 116 15447 1355 529 229 3677 852 29011 2933 21118 769 20747 1790 14092 801 1592 10562 52515 3703 5038
is_linear=0
shrinkage=0.03


Tree=15
num_leaves=64
num_cat=0
split_feature=20 24 20 24 23 20 20 20 24 24 20 20 20 20 20 16 20 35 27 16 29 27 16 20 21 16 28 16 16 15 1 28 20 16 20 23 24 16 20 28 21 16 16 21 27 24 29 35 20 16 33 16 16 16 33 24 22 29 20 20 16 23 16
split_gain=4.3117e+13 8.02278e+12 7.10154e+12 1.60919e+12 1.52713e+12 9.88e+11 8.95312e+11 3.85538e+11 2.54645e+11 1.94762e+11 1.41967e+11 1.32652e+11 1.30558e+11 1.20237e+11 1.13503e+11 1.13024e+11 8.80251e+10 6.60807e+10 6.89119e+10 5.50875e+10 5.47829e+10 5.26751e+10 4.06872e+10 3.82824e+10 3.73922e+10 6.32814e+10 3.27434e+10 3.20779e+10 7.2519e+10 7.75838e+10 4.28362e+10 4.1763e+10 3.00005e+10 2.71562e+10 2.65195e+10 2.64667e+10 2.61099e+10 2.49098e+10 2.93476e+10 2.41665e+10 2.33331e+10 2.21487e+10 3.68433e+10 2.06246e+10 2.08886e+10 1.90612e+10 1.88244e+10 1.84175e+10 1.84165e+10 1.84163e+10 1.78885e+10 1.67574e+10 1.6551e+10 1.65362e+10 1.72297e+10 1.60257e+10 1.57192e+10 1.56925e+10 1.53698e+10 1.50424e+10 1.45328e+10 1.43994e+10 1.38954e+10
threshold=35695.69000000001 80398.422499999971 12801.865000000002 53730.447499999958 113520.19500000002 22807.540000000005 5585.045000000001 139051.58500000005 65093.377499999988 43540.772499999912 92645.810000000012 2385.6500000000005 28501.845000000005 74018.345000000016 17646.475000000002 51.500000000000007 8744.5250000000015 343.50000000000006 24473.371716199988 51.500000000000007 21869.742206374223 24473.371716199988 50.500000000000007 113576.01000000002 101054.05 46.500000000000007 76442.884583333347 51.500000000000007 46.500000000000007 11.500000000000002 7.5000000000000009 70114.877916666694 48304.000000000007 37.500000000000007 40671.385000000002 139050.45000000004 31144.789999999939 51.500000000000007 61008.320000000007 84173.075000000026 92642.540000000008 51.500000000000007 50.500000000000007 24085.590000000004 15232.848473330507 24633.478749999984 12007.511820393829 350.50000000000006 653.2600000000001 51.500000000000007 16.500000000000004 2.5000000000000004 51.500000000000007 46.500000000000007 22.500000000000004 15300.05249999996 42602.19000000001 6586.3956556322946 10679.515000000001 3777.2950000000005 50.500000000000007 25996.755000000005 46.500000000000007
decision_type=2 2 2 2 2 2 2 2 2 2 2 2 2 2 2 2 2 2 2 2 2 2 2 2 2 2 2 2 2 2 2 2 2 2 2 2 2 2 2 2 2 2 2 2 2 2 2 2 2 2 2 2 2 2 2 2 2 2 2 2 2 2 2
left_child=2 3 6 9 10 14 11 13 37 19 21 48 45 -6 55 17 -8 24 -19 22 35 -3 34 -15 39 -26 -17 28 31 -30 50 40 -11 -23 -2 -9 49 38 46 -12 -10 42 -34 -36 -45 -7 -5 -40 -1 60 -31 -48 53 -16 -55 -4 -44 -24 -18 -13 -14 -21 -38
right_child=1 4 5 8 7 12 16 20 27 32 15 59 36 23 52 26 58 18 -20 61 -22 33 57 -25 25 -27 -28 -29 29 30 -32 -33 41 -35 43 -37 62 -39 47 -41 -42 -43 56 44 -46 -47 51 -49 -50 -51 -52 -53 -54 54 -56 -57 -58 -59 -60 -61 -62 -63 -64
leaf_value=-303.88298760388926 412.86564616647797 1329.3485055374103 -36.254810705325092 801.93980313163195 873.51740497818901 143.85911655317909 -168.51285924191802 2301.9974089186262 961.88037456532788 570.73725041028945 1093.7538648003472 -247.20816442013827 264.39954730467883 1843.4406015903135 73.07793975391948 180.43132959702436 -120.04912771376902 1728.403446359536 3060.3751578251008 6.3952330528889725 3256.1962477161037 371.30599096507564 612.48160891649195 2202.2066660156252 1684.4647648612081 2696.0514843749997 1111.7839287742124 619.8660439718019 2191.162739457111 1348.4864499470339 1065.0063607936952 1114.9309414534057 672.22068505868515 1137.230838142995 182.51278904224262 2741.5876173414913 331.5861693782191 483.05394301839397 890.47920146336958 1540.9602135477512 368.02556785225869 328.42692299690913 1479.9488936750856 500.68021033966244 768.36060168763277 211.05571774616661 93.986855491782137 1305.8927984095981 -276.31784351939331 17.047967545584346 2172.9027799479168 664.13481124579391 -117.88221289184013 91.530931739825618 284.15656212411022 9.4701852904044248 823.84529379401408 1070.0042138376543 -78.96804172984433 -215.41771348448131 555.97577710421581 322.61296382505998 477.62930958097701
leaf_weight=45742 7071 2562 14686 4446 82 6462 35689 201 2062 5041 134 26132 5744 473 18986 50 17204 96 61 297 185 81 163 824 1073 61 108 142 97 58 327 3561 4671 88 173 760 7718 201 2533 1069 63 163 72 4224 283 9261 52 104 42106 266 53 459 382 1030 704 13008 70 123 15675 27706 158 229 640
leaf_count=45742 7071 2562 14686 4446 82 6462 35689 201 2062 5041 134 26132 5744 473 18986 50 17204 96 61 297 185 81 163 824 1073 61 108 142 97 58 327 3561 4671 88 173 760 7718 201 2533 1069 63 163 72 4224 283 9261 52 104 42106 266 53 459 382 1030 704 13008 70 123 15675 27706 158 229 640
internal_value=0.171662 867.902 -133.743 681.287 1734.66 108.67 -224.879 2343.67 932.041 524.026 1448.61 -267.945 243.377 2002.26 25.1615 1605.93 -135.886 1655.37 2262.02 445.269 2752.4 1295.31 458.403 2072.89 1613.67 1741.21 820.041 1073.05 1083.29 1419.69 1244.24 1051.4 622.745 774.474 449.722 2652.13 308.226 816.814 825.583 1492.1 944.456 675.308 686.985 505.308 517.655 183.449 781.91 907.351 -290.674 261.295 1758.01 606.413 77.5757 81.1848 169.855 -14.778 1164.54 812.291 -100.467 -230.853 272.298 144.415 342.825
internal_weight=333945 44646 289299 36738 7908 79045 210254 2525 14158 22580 5383 141686 30249 1379 48796 2652 68568 2494 157 12563 1146 2731 12037 1297 2337 1134 158 6363 6221 535 438 5686 10017 169 11751 961 14526 7795 7594 1203 2125 4976 4813 4680 4507 15723 4957 2637 87848 6168 111 511 21102 20720 1734 27694 142 286 32879 53838 5902 526 8358
internal_count=333945 44646 289299 36738 7908 79045 210254 2525 14158 22580 5383 141686 30249 1379 48796 2652 68568 2494 157 12563 1146 2731 12037 1297 2337 1134 158 6363 6221 535 438 5686 10017 169 11751 961 14526 7795 7594 1203 2125 4976 4813 4680 4507 15723 4957 2637 87848 6168 111 511 21102 20720 1734 27694 142 286 32879 53838 5902 526 8358
is_linear=0
shrinkage=0.03


Tree=16
num_leaves=64
num_cat=0
split_feature=20 24 20 24 24 20 20 28 20 20 20 24 16 20 16 16 20 20 16 20 20 24 6 16 20 16 35 28 16 15 25 24 20 29 24 21 28 1 16 22 16 16 25 16 15 27 28 16 25 16 27 29 35 24 1 16 16 16 25 16 24 26 24
split_gain=4.04879e+13 8.74419e+12 5.31596e+12 2.19512e+12 1.26397e+12 7.1443e+11 6.43842e+11 3.20517e+11 2.90241e+11 2.02994e+11 1.45233e+11 1.35456e+11 1.02322e+11 1.00316e+11 9.5569e+10 1.99505e+11 9.53769e+10 9.21568e+10 7.68537e+10 7.48504e+10 6.54994e+10 6.40369e+10 5.77011e+10 5.52196e+10 4.97598e+10 4.74804e+10 3.99465e+10 3.84395e+10 3.57016e+10 3.83315e+10 9.03611e+10 3.45648e+10 2.88036e+10 2.65305e+10 2.60765e+10 2.52522e+10 2.44059e+10 2.33146e+10 2.31205e+10 2.24113e+10 2.7066e+10 2.13504e+10 2.03228e+10 1.89718e+10 1.9502e+10 3.27125e+10 1.79952e+10 1.70673e+10 3.87299e+10 1.69792e+10 2.6503e+10 1.67555e+10 1.65987e+10 1.64264e+10 1.6367e+10 1.61355e+10 1.53352e+10 1.4953e+10 1.43611e+10 1.39938e+10 1.38859e+10 1.30053e+10 1.27472e+10
threshold=31644.190000000006 70641.650000000009 11354.910000000002 111987.71249999992 46999.934999999961 20617.920000000002 4258.0750000000007 135425.06291666671 86112.99500000001 57241.735000000008 77314.910000000018 37910.039999999914 51.500000000000007 15627.950000000003 51.500000000000007 50.500000000000007 7485.4350000000004 25476.750000000004 50.500000000000007 54013.360000000008 1423.8400000000001 91500.394999999975 25543.440000000006 51.500000000000007 139051.58500000005 51.500000000000007 350.50000000000006 53334.002916666672 46.500000000000007 11.500000000000002 4253.7167412922872 65093.377499999988 43650.200000000004 14020.511187910914 80398.422499999971 68131.460000000006 70114.877916666694 7.5000000000000009 48.500000000000007 101429.19000000002 46.500000000000007 51.500000000000007 21625.135536051712 46.500000000000007 11.500000000000002 3439.1897805105277 49043.731250000004 46.500000000000007 5931.8883746060683 51.500000000000007 9031.0616122078809 10034.63251341714 350.50000000000006 100544.58999999997 17.500000000000004 51.500000000000007 51.500000000000007 48.500000000000007 5301.9261352371095 46.500000000000007 12909.608749999919 28691.169999999995 33765.006249999911
decision_type=2 2 2 2 2 2 2 2 2 2 2 2 2 2 2 2 2 2 2 2 2 2 2 2 2 2 2 2 2 2 2 2 2 2 2 2 2 2 2 2 2 2 2 2 2 2 2 2 2 2 2 2 2 2 2 2 2 2 2 2 2 2 2
left_child=2 4 6 8 11 13 20 10 19 22 -5 25 18 60 15 39 -8 55 21 -3 -1 -10 27 26 -9 28 31 35 62 30 -30 -11 -13 -26 -21 -6 -14 -28 51 -12 -41 43 -42 61 45 -45 -25 -33 -49 50 -34 -31 -52 -23 -53 -7 59 -46 -40 -15 -4 -19 -2
right_child=1 3 5 7 9 17 16 24 12 23 14 32 36 56 -16 -17 -18 41 -20 34 -22 53 -24 46 33 -27 37 -29 29 38 -32 47 49 -35 -36 -37 -38 -39 58 40 42 -43 -44 44 57 -47 -48 48 -50 -51 52 54 -54 -55 -56 -57 -58 -59 -60 -61 -62 -63 -64
